tree
version=v3
num_class=1
num_tree_per_iteration=1
label_index=0
max_feature_idx=22
objective=binary sigmoid:1
feature_names=limit_bal gender education marriage age pay_1 pay_2 pay_3 pay_4 pay_5 pay_6 bill_amt1 bill_amt2 bill_amt3 bill_amt4 bill_amt5 bill_amt6 pay_amt1 pay_amt2 pay_amt3 pay_amt4 pay_amt5 pay_amt6
feature_infos=[10000:1000000] 2:1 2:1:3:4 2:1:3 [21:75] 1:0 1:0 1:0 1:0 1:0 1:0 [-165580:964511] [-69777:983931] [-61506:1664089] [-170000:891586] [-81334:927171] [-209051:961664] [0:873552] [0:1684259] [0:896040] [0:621000] [0:426529] [0:527143]
tree_sizes=1632 1654 1653 1637 1657 1683 1651 1645 1672 1677 1657 1662 1695 1649 1692 1654 1667 1677 1691 1655 1668 1658 1670 1672 1692 1662 1649 1659 1689 1665 1655 1684 1702 1710 1668 1705 1666 1678 1680 1710 1690 1697 1681 1707 1713 1672 1690 1665 1584 1727 1709 1681 1684 1717 1715 1686 1723 1723 1724 1727 1693 1705 1714 1708 1723 1742 1726 1696 1689 1623 1718 1521 1696 1732 1710 1725 1721 1719 1736 1610 1721 1682 1734 1719 1739 1719 1714 1743 1717 1512 1727 1737 1742 1721 1605 1739 1501 1739 1294 1722 1740 1723 1740

Tree=0
num_leaves=15
num_cat=4
split_feature=5 19 7 0 12 12 12 22 0 9 0 19 3 0
split_gain=7101.28 925.881 637.354 480.43 336.354 144.664 168.901 113.279 92.9621 79.8676 75.0183 67.7877 64.124 56.5196
threshold=0 851.00000000000011 1 75000.000000000015 2363.0000000000005 3686.5000000000005 80332.000000000015 1641.5000000000002 125000.00000000001 2 205000.00000000003 3801.0000000000005 3 45000.000000000007
decision_type=1 2 1 2 2 2 2 2 2 1 2 2 1 2
left_child=4 7 -3 13 -1 11 8 12 -7 -6 -8 -5 -2 -4
right_child=1 2 3 5 9 6 10 -9 -10 -11 -12 -13 -14 -15
leaf_value=-1.073678415006722 -1.1226409897364165 -1.0792524777549832 -1.1240969002947392 -1.1480598755065361 -1.0042943469565597 -1.1973232214309977 -1.1695019671383011 -1.1512546129918233 -1.2430083712577478 -1.0284150020096547 -1.2094278618329679 -1.2024879270753817 -1.0933010452517624 -1.1582755900079871
leaf_weight=481.97646744549274 523.33818012475967 220.30737622082233 297.14671136438847 226.53759138286114 878.46052524447441 226.53759045898914 352.87253476679325 267.3801211565733 548.77822507917881 1129.7459214627743 325.87492926418781 129.45005163550377 549.98966285586357 420.88573092222214
leaf_count=1085 1534 513 877 744 1131 899 1264 890 2526 1833 1348 523 1388 1442
internal_value=0 1.55435 1.222 1.07984 3.69639 0.805278 0.665396 2.23564 0.346507 3.87644 1.02965 1.37664 2.38072 1.77198
internal_weight=0 4089.1 2748.39 2528.08 2490.18 1810.05 1454.06 1340.71 775.316 2008.21 678.747 355.988 1073.33 718.032
internal_count=17997 13948 10136 9623 4049 7304 6037 3812 3425 2964 2612 1267 2922 2319
cat_boundaries=0 1 2 3 4
cat_threshold=2 2 2 4
shrinkage=1


Tree=1
num_leaves=15
num_cat=3
split_feature=6 8 18 0 11 20 12 0 0 11 0 11 7 18
split_gain=3792.13 669.74 607.243 235.56 204.666 199.15 138.502 166.486 135.226 105.624 149.698 77.2752 75.1576 61.1977
threshold=0 1 1888.5000000000002 145000.00000000003 219734.50000000003 1005.5000000000001 4566.5000000000009 295000.00000000006 75000.000000000015 839.00000000000011 85000.000000000015 8615.0000000000018 2 4984.5000000000009
decision_type=1 1 2 2 2 2 2 2 2 2 2 2 1 2
left_child=12 -2 5 13 6 9 -5 -8 -7 -3 -11 -12 -1 -4
right_child=1 2 3 4 -6 8 7 -9 -10 10 11 -13 -14 -15
leaf_value=0.20023628455457906 0.16738611002216344 0.13903885803062258 0.097373484018002956 0.077016308233552377 0.1067604130447115 0.11543714812610656 0.046025839075963672 -0.012387010771641543 0.058906284276027655 0.12724339102549997 0.099713041242073891 0.040961949252740347 0.17399783623240217 0.063434936937108319
leaf_weight=1450.8456141352654 426.26299281418324 731.15267802774906 787.06887866556644 290.79871292412281 202.09825776517391 260.07601679861546 604.87401378154755 247.54357713460922 367.70617167651653 566.9138425886631 207.03366766870022 131.96951222419739 539.01407527923584 252.67675049602985
leaf_count=1770 808 1670 2366 966 605 693 2335 1179 1305 1414 608 503 891 884
internal_value=0 1.59008 1.4801 1.12795 0.85167 1.85095 0.687676 0.484377 1.3721 2.03457 1.80638 1.2807 3.21881 1.48543
internal_weight=0 5076.18 4649.91 2385.06 1345.31 2264.85 1143.22 852.418 627.782 1637.07 905.917 339.003 1989.86 1039.75
internal_count=17997 15336 14528 8335 5085 6193 4480 3514 1998 4195 2525 1111 2661 3250
cat_boundaries=0 1 2 3
cat_threshold=2 2 2
shrinkage=0.06


Tree=2
num_leaves=15
num_cat=3
split_feature=6 22 8 11 0 0 11 11 0 11 11 7 17 0
split_gain=2815.75 506.36 244.38 203.266 267.32 167.916 178.742 99.6526 66.2629 61.9247 129.621 53.2721 51.2577 48.2264
threshold=0 2000.5000000000002 1 489.50000000000006 95000.000000000015 145000.00000000003 149808.50000000003 6530.5000000000009 45000.000000000007 9929.0000000000018 83855.000000000015 2 3764.5000000000005 195000.00000000003
decision_type=1 2 1 2 2 2 2 2 2 2 2 1 2 2
left_child=11 2 -2 -4 8 12 7 -7 -5 13 -11 -1 -3 -6
right_child=1 5 3 4 9 6 -8 -9 -10 10 -12 -13 -14 -15
leaf_value=0.17250032179950728 0.14954543021311426 0.097912207325611442 0.12047156296846512 0.1190303880791642 0.098447269137729859 0.059211204180419613 0.081855133810147265 0.016559730146599481 0.091722955527793207 0.02001773773961206 0.086533478370904762 0.15142255869233506 0.064762234228786894 0.0594013383132794
leaf_weight=1616.8637832850218 326.98620268702507 433.43464821577072 823.45861001312733 539.70070172846317 198.48122505843639 317.72569063305855 391.34177228808403 519.90226812660694 785.47141250967979 282.53503616154194 168.2948722243309 588.89529505372047 274.11050160229206 267.1552476733923
leaf_count=1802 548 1159 1805 1218 538 1080 1212 2168 2160 1147 503 897 876 884
internal_value=0 1.43773 1.67064 1.58297 1.42689 1.02974 0.806308 0.545635 1.71407 1.01164 0.747468 2.78122 1.41783 1.26742
internal_weight=0 5328.6 3392.08 3065.1 2241.64 1936.51 1228.97 837.628 1325.17 916.466 450.83 2205.76 707.545 465.636
internal_count=17997 15298 8803 8255 6450 6495 4460 3248 3378 3072 1650 2699 2035 1422
cat_boundaries=0 1 2 3
cat_threshold=2 2 2
shrinkage=0.06


Tree=3
num_leaves=15
num_cat=5
split_feature=5 18 8 11 18 20 2 12 12 11 13 0 6 10
split_gain=3246.38 488.642 273.064 212.684 143.586 120.938 111.482 80.854 91.7649 67.5304 70.7626 65.8414 62.9819 35.8922
threshold=0 1617.5000000000002 1 990.50000000000011 16683.500000000004 2051.5000000000005 2 4566.5000000000009 129638.00000000001 16080.000000000002 18823.000000000004 245000.00000000003 3 4
decision_type=1 2 1 2 2 2 1 2 2 2 2 2 1 1
left_child=3 5 -3 -1 6 9 7 -4 -9 -2 -11 -8 13 -5
right_child=1 2 4 12 -6 -7 11 8 -10 10 -12 -13 -14 -15
leaf_value=0.11241331958963378 0.10327880122033767 0.11075661825062551 0.066705437285098673 0.15668877329717509 -0.0019107080525366115 0.054138456880609344 0.064659940467197974 0.004083024747099916 0.058370471862782457 0.046704514761597878 0.09410255472326233 0.031621272591236038 0.17157659372249603 0.14101583222361902
leaf_weight=557.80040182173252 1252.4781641066074 248.70582577586174 166.95948374271393 1009.2849999815226 216.32053031027317 291.67346248030663 1215.9376305192709 404.46543911099434 155.06934052705765 177.1112242937088 315.18534310162067 264.35891768336296 534.72161963582039 1098.5750148594379
leaf_count=1093 2813 500 507 989 921 913 3753 1670 510 562 770 1005 616 1375
internal_value=0 1.12933 0.848077 2.43466 0.745656 1.49833 0.821871 0.501037 0.318804 1.59797 1.28417 0.979329 2.5531 2.47534
internal_weight=0 4708.27 2671.82 3200.38 2423.11 2036.45 2206.79 726.494 559.535 1744.77 492.297 1480.3 2642.58 2107.86
internal_count=17997 13924 8866 4073 8366 5058 7445 2687 2180 4145 1332 4758 2980 2364
cat_boundaries=0 1 2 3 4 5
cat_threshold=2 2 2 2 2
shrinkage=0.06


Tree=4
num_leaves=15
num_cat=3
split_feature=6 19 0 11 11 20 8 11 18 0 0 11 10 17
split_gain=1773.83 441.66 353.893 167.185 122.862 88.4546 59.7778 92.0919 54.2996 42.4807 39.7411 44.1266 37.774 36.8253
threshold=0 851.00000000000011 145000.00000000003 124778.50000000001 7016.0000000000009 326.50000000000006 1 839.00000000000011 4984.5000000000009 95000.000000000015 65000.000000000007 8393.0000000000018 2 4571.0000000000009
decision_type=1 2 2 2 2 2 1 2 2 2 2 2 1 2
left_child=12 6 5 4 13 -3 -2 -8 9 -7 -9 -12 -1 -4
right_child=1 2 3 -5 -6 8 7 10 -10 -11 11 -13 -14 -15
leaf_value=0.14012488133571357 0.11497707117584728 0.10223500799485502 0.055700085792867789 0.064407678143893879 0.005649281858972276 0.078934022061638506 0.10094402922425028 0.088805733938428444 0.041852782492106555 0.05315273668168688 0.077419227505857779 0.040709173803184798 0.12502014898647759 0.018524814817945465
leaf_weight=1115.7519206106663 350.56776165962219 352.54428938031197 365.8295509070158 547.06483271718025 603.98341789841652 1094.3533061444759 922.17097710072994 353.50203563272953 226.94724144041538 291.33525414764881 287.76800447702408 199.66747662425041 1279.5833681821823 130.02077467739582
leaf_count=1071 576 713 1092 1632 2515 2690 1812 783 735 882 735 644 1615 502
internal_value=0 1.17608 0.96362 0.6217 0.396991 1.25016 1.53914 1.46415 1.15097 1.22523 1.22483 1.0397 2.20093 0.765868
internal_weight=0 5725.75 3612.08 1646.9 1099.83 1965.18 2113.68 1763.11 1612.64 1385.69 840.938 487.435 2395.34 495.85
internal_count=17997 15311 10761 5741 4109 5020 4550 3974 4307 3572 2162 1379 2686 1594
cat_boundaries=0 1 2 3
cat_threshold=2 2 2
shrinkage=0.06


Tree=5
num_leaves=15
num_cat=2
split_feature=6 20 10 18 18 19 11 13 20 22 11 21 22 13
split_gain=1496.37 306.121 184.289 90.3648 90.2366 78.1488 65.505 60.2888 46.6004 45.6836 79.3052 37.8425 32.3519 31.796
threshold=0 1500.5000000000002 1 19376.000000000004 5100.5000000000009 600.50000000000011 18165.000000000004 2502.0000000000005 316.50000000000006 2496.5000000000005 198746.00000000003 5435.5000000000009 1272.5000000000002 2419.5000000000005
decision_type=1 2 1 2 2 2 2 2 2 2 2 2 2 2
left_child=-1 4 -3 9 5 6 -2 -7 -9 13 11 -11 -10 -4
right_child=1 2 3 -5 -6 7 -8 8 12 10 -12 -13 -14 -15
leaf_value=0.12056688140451705 0.093898722977235782 0.097531459765278342 0.033610333500796424 -0.0016733388924742279 0.041466065597121675 0.047881770171125236 0.057587670266898511 0.094188937056392502 0.060012305243371186 0.039572380679013745 0.072008794945501969 0.014128143775959374 0.084752736309580037 0.062362616074239478
leaf_weight=2418.4014639854431 1317.0971299111843 253.18429562449455 170.44851268827915 148.45029562711716 244.85640060901642 348.81131598353386 206.95812955498695 362.73162604868412 555.96824552118778 740.2575598359108 220.0189483165741 294.00173792243004 289.28427535295486 737.83348152041435
leaf_count=2630 2490 518 520 608 770 951 537 742 1431 2402 585 1103 678 2032
internal_value=0 1.07521 0.815577 0.726842 1.27539 1.32183 1.4828 1.16425 1.26999 0.778651 0.654968 0.538992 1.14133 0.949449
internal_weight=0 5889.9 2564.19 2311.01 3325.71 3080.85 1524.06 1556.8 1207.98 2162.56 1254.28 1034.26 845.253 908.282
internal_count=17997 15367 7768 7250 7599 6829 3027 3802 2851 6642 4090 3505 2109 2552
cat_boundaries=0 1 2
cat_threshold=2 2
shrinkage=0.06


Tree=6
num_leaves=15
num_cat=4
split_feature=5 18 0 12 13 7 17 12 0 2 6 22 18 0
split_gain=2104.8 333.853 145.53 108.71 99.8351 86.4832 93.9707 86.0157 93.7865 71.1975 63.5461 42.0851 41.7825 35.6264
threshold=0 1500.5000000000002 75000.000000000015 4566.5000000000009 7362.0000000000009 1 2493.0000000000005 118287.50000000001 285000.00000000006 2 3 199.50000000000003 5267.5000000000009 195000.00000000003
decision_type=1 2 2 2 2 1 2 2 2 1 1 2 2 2
left_child=4 5 -3 12 11 -2 -7 8 9 -5 -6 -1 -4 -9
right_child=1 2 3 7 10 6 -8 13 -10 -11 -12 -13 -14 -15
leaf_value=0.1022151033625561 0.094126530657071439 0.058545317324332644 0.069297068701830028 -0.0044815251469619791 0.11196292264250833 0.068215723290626043 0.02648025958134791 0.062700091917404069 -0.021720361326403623 0.032397659711895628 0.13479677588115943 0.073915634966310331 0.031219038104130709 0.030607182298975986
leaf_weight=636.07267072796822 388.2496296018362 833.80250416696072 282.54395781457424 270.39542391896248 1996.4537745416164 1484.0748271942139 223.45898585021496 184.99171184003353 230.3680771291256 621.86924666166306 562.35611043870449 269.26373571157455 163.92967148125172 380.97016593813896
leaf_count=896 680 2056 708 1071 2058 3356 686 511 1066 2008 618 509 530 1244
internal_value=0 0.837183 0.621468 0.483109 1.84871 1.14276 1.0459 0.367081 0.20683 0.353694 1.94969 1.56331 0.921936 0.684953
internal_weight=0 5064.65 2968.87 2135.07 3464.15 2095.78 1707.53 1688.59 1122.63 892.265 2558.81 905.336 446.474 565.962
internal_count=17997 13916 9194 7138 4081 4722 4042 5900 4145 3079 2676 1405 1238 1755
cat_boundaries=0 1 2 3 4
cat_threshold=2 2 2 2
shrinkage=0.06


Tree=7
num_leaves=15
num_cat=5
split_feature=5 7 17 0 12 20 20 12 0 19 6 2 12 7
split_gain=1880.99 287.611 258.574 97.7204 88.9033 67.2188 56.6393 62.2878 84.4224 29.2978 29.0436 25.7618 27.4221 25.3526
threshold=0 1 1999.5000000000002 95000.000000000015 2363.0000000000005 2198.0000000000005 1.0000000180025095e-35 212653.50000000003 335000.00000000006 400.50000000000006 2 3 9813.0000000000018 4
decision_type=1 1 2 2 2 2 2 2 2 2 1 1 2 1
left_child=4 -2 5 -4 -1 9 -5 8 -8 -3 13 -11 -13 -6
right_child=1 2 3 6 10 -7 7 -9 -10 11 -12 12 -14 -15
leaf_value=0.08247227585231133 0.089182785066623041 0.069054111084919087 0.044964950858462326 0.050967272472665963 0.10746344844185962 0.029427155828166445 0.018169371753970785 0.048298735697364995 -0.022062962228748786 0.0628586412395572 0.11827474325146987 0.055897160769328762 0.026710669918919683 0.092721579168850626
leaf_weight=654.1816930025816 490.12011693418026 816.54636926949024 816.03422573208809 186.08260700106621 1669.7541998773813 288.19428786635399 1107.244862601161 187.29067586362362 226.10497419536114 529.27628393471241 637.78984905779362 275.4162745475769 200.07436680793762 561.09655655920506
leaf_count=1073 819 1667 2157 533 1597 875 3848 536 1011 1226 720 662 582 691
internal_value=0 0.757909 0.680832 0.464785 1.7072 0.939203 0.328694 0.264968 0.189115 1.01021 1.78306 0.895874 0.726937 1.72926
internal_weight=0 5122.39 4632.26 2522.76 3522.82 2109.51 1706.72 1520.64 1333.35 1821.31 2868.64 1004.77 475.491 2230.85
internal_count=17997 13916 13097 8085 4081 5012 5928 5395 4859 4137 3008 2470 1244 2288
cat_boundaries=0 1 2 3 4 5
cat_threshold=2 2 2 4 2
shrinkage=0.06


Tree=8
num_leaves=15
num_cat=4
split_feature=6 20 10 13 19 20 17 11 17 7 3 15 15 11
split_gain=1073.91 253.019 171.766 60.1434 98.6323 55.8221 49.9431 70.9999 40.3712 36.515 35.4289 33.1177 29.1325 62.9493
threshold=0 1500.5000000000002 1 214607.00000000003 4998.5000000000009 1.0000000180025095e-35 3935.5000000000005 134968.50000000003 4901.0000000000009 2 3 8607.5000000000018 1.0000000180025095e-35 1506.5000000000002
decision_type=1 2 1 2 2 2 2 2 2 1 1 2 2 2
left_child=9 5 -3 4 -4 12 -6 -8 10 -1 11 -7 13 -2
right_child=1 2 3 -5 6 8 7 -9 -10 -11 -12 -13 -14 -15
leaf_value=0.10142928440267254 0.075403867756839368 0.081683356845416263 0.037744769763840245 0.062603862188925802 0.037506401796922106 0.034896406892373014 -0.017425967085228488 0.027039546579151474 0.026936231641202173 0.085312579360250038 0.066089563731670686 0.05822992499145601 0.082973410407845796 0.045991389780734748
leaf_weight=1860.7710504680872 724.34214250743389 278.05729386210442 1494.6148041039705 209.62897774577141 184.87178935110569 358.06164887547493 307.11324600875378 223.24756325781345 172.39570312201977 695.14426718652248 861.60874231159687 563.75093619525433 438.72272369265556 410.36514043807983
leaf_count=1775 1251 517 4241 513 559 896 1293 697 520 898 1787 1248 791 1011
internal_value=0 0.847607 0.617038 0.531493 0.482933 1.02384 0.177533 0.0215189 0.911037 1.61743 0.955706 0.819441 1.16406 1.07945
internal_weight=0 6226.78 2697.53 2419.48 2209.85 3529.25 715.233 530.361 1955.82 2555.92 1783.42 921.813 1573.43 1134.71
internal_count=17997 15324 7820 7303 6790 7504 2549 1990 4451 2673 3931 2144 3053 2262
cat_boundaries=0 1 2 3 4
cat_threshold=2 2 2 4
shrinkage=0.06


Tree=9
num_leaves=15
num_cat=3
split_feature=5 20 12 18 18 22 12 17 3 20 3 12 17 17
split_gain=1566.19 207.877 105.296 93.1179 57.1468 53.7911 45.1512 56.0819 36.8743 32.4218 28.9159 28.6235 35.8847 27.8059
threshold=0 1730.5000000000002 2363.0000000000005 16683.500000000004 921.00000000000011 1525.5000000000002 110824.00000000001 4300.5000000000009 1 6473.0000000000009 2 3347.5000000000005 391.00000000000006 1021.5000000000001
decision_type=1 2 2 2 2 2 2 2 1 2 1 2 2 2
left_child=2 4 -1 5 11 8 7 -7 -3 -8 -6 12 -2 -4
right_child=1 3 13 -5 10 6 9 -9 -10 -11 -12 -13 -14 -15
leaf_value=0.06876507064005051 0.061416022357259632 0.029009167938351264 0.087865209236506078 -0.019071054617835041 0.050941890146147049 0.025182634159329146 0.023858484382860479 -0.0047330715245222869 0.059960644951288111 0.053910855860817751 0.036009282206076916 0.075279458034668942 0.032771039165246582 0.099923905351201228
leaf_weight=663.82734739780426 602.07757678627968 277.02555376291275 1123.4114719480276 159.71241714060307 852.93093541264534 687.946523681283 295.22245517373085 335.66629979014397 277.24717478454113 229.85719387233257 1031.3199124187231 312.6377466917038 213.18720179796219 1777.7667759954929
leaf_count=1087 1148 778 1219 687 2023 2099 930 1282 644 603 2661 563 509 1764
internal_value=0 0.647323 1.50537 0.418275 0.819379 0.474181 0.378501 0.25621 0.741518 0.616902 0.712812 0.997409 0.898759 1.58757
internal_weight=0 5274.83 3565.01 2262.68 3012.15 2102.97 1548.69 1023.61 554.273 525.08 1884.25 1127.9 815.265 2901.18
internal_count=17997 13927 4070 7023 6904 6336 4914 3381 1422 1533 4684 2220 1657 2983
cat_boundaries=0 1 2 3
cat_threshold=2 4 2
shrinkage=0.06


Tree=10
num_leaves=15
num_cat=4
split_feature=6 8 22 11 0 0 0 13 11 15 1 20 10 4
split_gain=921.063 231.921 175.938 86.8911 121.048 80.311 56.4755 52.0371 62.5898 45.8588 35.5149 33.9078 33.6048 31.3608
threshold=0 1 1500.5000000000002 781.00000000000011 205000.00000000003 145000.00000000003 45000.000000000007 138085.50000000003 7016.0000000000009 30250.500000000004 2 416.50000000000006 3 35.500000000000007
decision_type=1 1 2 2 2 2 2 2 2 2 1 2 1 2
left_child=12 -2 3 11 6 -4 -5 8 -7 -8 -10 13 -1 -3
right_child=1 2 5 4 -6 7 9 -9 10 -11 -12 -13 -14 -15
leaf_value=0.0944864423454745 0.081086065860615911 0.056857521101885709 0.04138799464474064 0.06395208890126762 0.010147882192800202 0.03017441715078167 0.035688908787432791 0.037161178978402654 -0.011430595252849942 0.064782547906942475 0.017737382912104405 0.04377688883601058 0.08060830823207063 0.079670520254293234
leaf_weight=1137.9160612374544 557.68310934305191 410.15556590259075 1061.0370417535305 602.57728835940361 344.62822337448597 429.8221557289362 976.30855755507946 438.45199194550514 370.1430711299181 243.73486965894699 252.99806432425976 248.03426195681095 1402.0191507488489 460.48548367619514
leaf_count=1020 816 744 2640 1108 1079 1233 2407 1201 1474 517 898 548 1624 688
internal_value=0 0.735313 0.676461 0.829458 0.712628 0.479498 0.815394 0.329883 0.209349 0.691685 0.00686222 1.0558 1.4471 1.14872
internal_weight=0 6396.06 5838.38 3285.92 2167.25 2552.45 1822.62 1491.42 1052.96 1220.04 623.141 1118.68 2539.94 870.641
internal_count=17997 15353 14537 7091 5111 7446 4032 4806 3605 2924 2372 1980 2644 1432
cat_boundaries=0 1 2 3 4
cat_threshold=2 2 4 2
shrinkage=0.06


Tree=11
num_leaves=15
num_cat=4
split_feature=5 18 0 7 14 6 20 19 20 16 21 6 21 14
split_gain=1394.36 275.789 117.709 75.7115 70.7568 57.8512 55.5647 53.7713 45.5904 48.491 46.6266 41.691 38.2076 28.188
threshold=0 1500.5000000000002 75000.000000000015 1 13786.000000000002 2 2963.5000000000005 900.50000000000011 316.50000000000006 105025.00000000001 984.50000000000011 3 7000.5000000000009 1018.0000000000001
decision_type=1 2 2 1 2 1 2 2 2 2 2 1 2 2
left_child=4 3 -3 -2 5 -1 13 -4 -9 10 -10 -6 -11 -5
right_child=1 2 7 6 11 -7 -8 8 9 12 -12 -13 -14 -15
leaf_value=0.083723131808592713 0.071135572120740023 0.038962283495330985 0.035524057190745521 0.053434244547038351 0.082626216151382229 0.057726057278561588 0.010304748349341848 0.037325858617227828 0.028217558223372449 0.0069679624845109334 -0.0049616695062776744 0.10175592915560037 0.041243760033318803 0.037612574285817733
leaf_weight=556.41094048321247 426.56710341572762 909.50852191448212 333.394396007061 913.37815335392952 1762.3410764634609 690.65021945536137 169.24072609841824 188.94922739267349 178.74110485613346 257.22075738012791 1037.6711993664503 534.53380167484283 214.88928854465485 728.87023313343525
leaf_count=575 674 2107 835 1786 1794 1155 518 509 542 854 3808 538 596 1706
internal_value=0 0.538688 0.346555 0.806566 1.34719 1.15542 0.717314 0.221983 0.156264 0.104136 -0.00143789 1.4513 0.376153 0.773537
internal_weight=0 5358.43 3120.37 2238.06 3543.94 1247.06 1811.49 2210.87 1877.47 1688.52 1216.41 2296.87 472.11 1642.25
internal_count=17997 13935 9251 4684 4062 1730 4010 7144 6309 5800 4350 2332 1450 3492
cat_boundaries=0 1 2 3 4
cat_threshold=2 2 2 2
shrinkage=0.06


Tree=12
num_leaves=15
num_cat=2
split_feature=5 10 11 11 0 11 11 19 21 17 0 0 13 16
split_gain=1208.11 205.257 156.612 144.914 146.326 60.5827 91.8212 51.322 44.7507 28.4827 26.8082 18.1996 36.3394 18.0833
threshold=0 1 599.00000000000011 781.00000000000011 65000.000000000007 9101.5000000000018 76917.500000000015 2445.0000000000005 5000.5000000000009 1021.5000000000001 275000.00000000006 45000.000000000007 33193.500000000007 1201.0000000000002
decision_type=1 1 2 2 2 2 2 2 2 2 2 2 2 2
left_child=2 -2 -1 -3 11 7 8 13 -7 -4 -8 -5 -13 -6
right_child=1 3 9 4 5 6 10 -9 -10 -11 -12 12 -14 -15
leaf_value=0.049056506296879153 0.070982838919838059 0.05104780037140378 0.075359495076577604 0.046588995230590333 0.028451093382419617 0.0024769615690485858 0.028157391818467881 0.0079508712057850383 -0.030402320743266775 0.087338109224301547 0.0064797003331653301 0.019741579990816757 0.047383880725496985 0.049469815001652283
leaf_weight=627.22820469737053 428.14421825110912 801.78672327101231 1267.0432229191065 659.18128174543381 303.58751456439495 741.72107176482677 724.03047554194927 293.52674794197083 186.4942709505558 1639.0207546949387 286.69466270506382 366.97950884699821 320.94494001567364 286.34160196781158
leaf_count=1091 732 1559 1397 1327 730 2444 2098 981 802 1598 952 919 705 662
internal_value=0 0.518671 1.27078 0.461452 0.386582 0.257159 0.158264 0.474207 -0.0688174 1.36859 0.366808 0.657743 0.543964 0.64422
internal_weight=0 5399.43 3533.29 4971.29 4169.5 2822.4 1938.94 883.456 928.215 2906.06 1010.73 1347.11 687.924 589.929
internal_count=17997 13911 4086 13179 11620 8669 6296 2373 3246 2995 3050 2951 1624 1392
cat_boundaries=0 1 2
cat_threshold=2 2
shrinkage=0.06


Tree=13
num_leaves=15
num_cat=5
split_feature=5 8 18 12 3 0 2 20 1 15 17 0 17 0
split_gain=1108.76 162.698 160.896 79.3814 54.6955 49.0786 46.8115 46.104 33.4521 31.9874 20.6662 19.782 26.9418 26.4099
threshold=0 1 1500.5000000000002 2363.0000000000005 2 305000.00000000006 3 2051.5000000000005 4 8035.5000000000009 1052.5000000000002 25000.000000000004 442.00000000000006 205000.00000000003
decision_type=1 1 2 2 1 2 1 2 1 2 2 2 2 2
left_child=3 -2 7 -1 6 8 -4 11 9 -6 -5 -3 -13 -14
right_child=1 2 4 10 5 -7 -8 -9 -10 -11 -12 12 13 -15
leaf_value=0.055144686988384664 0.063973703935783249 0.05736923746256678 -0.0032648127873134872 0.071122269086649384 0.043287386684795981 0.0017396326327300091 0.018303090683476384 0.017190338315397669 0.044194639211478974 0.01541695208451206 0.081664494260192039 0.049236819534836614 0.038764924063958504 0.013161628596971417
leaf_weight=720.50462147593498 456.38893955945969 287.70543619990349 613.15175189077854 1110.1720742732286 206.0231327265501 249.39657819271088 885.41535048186779 290.66890072822571 437.12824247777462 528.66491162776947 1686.1368275433779 659.94281925261021 644.11541469395161 187.18541733920574
leaf_count=1137 714 501 2096 1237 511 917 2574 802 1104 1565 1709 1214 1407 509
internal_value=0 0.494726 0.44245 1.21506 0.291262 0.431805 0.157973 0.655744 0.517535 0.387208 1.29132 0.716075 0.669757 0.549996
internal_weight=0 5445.79 4989.4 3516.81 2919.78 1421.21 1498.57 2069.62 1171.82 734.688 2796.31 1778.95 1491.24 831.301
internal_count=17997 13914 13200 4083 8767 4097 4670 4433 3180 2076 2946 3631 3130 1916
cat_boundaries=0 1 2 3 4 5
cat_threshold=2 2 4 2 4
shrinkage=0.06


Tree=14
num_leaves=15
num_cat=2
split_feature=7 17 0 12 17 0 19 3 16 15 17 12 19 4
split_gain=608.973 169.661 79.994 80.5567 52.5268 86.3912 36.1847 35.8045 33.4939 31.2789 26.1512 26.0488 35.2082 25.0196
threshold=0 2000.5000000000002 145000.00000000003 156284.00000000003 21.000000000000004 125000.00000000001 7062.0000000000009 1 69678.000000000015 23955.000000000004 4000.5000000000005 1.0000000180025095e-35 104.50000000000001 32.500000000000007
decision_type=1 2 2 2 2 2 2 1 2 2 2 2 2 2
left_child=-1 4 8 6 11 -6 7 -4 10 -8 -3 12 13 -2
right_child=1 2 3 -5 5 -7 9 -9 -10 -11 -12 -13 -14 -15
leaf_value=0.07162668160278006 0.037110470569636816 0.03677314319220755 0.024164981000189614 0.036337538842864836 0.045809069407313177 0.021180877787037804 0.0054721632058090403 -0.00043143145970854458 0.05464672287691321 -0.03590369987084592 0.016366056820977359 0.061962691630036544 0.024576648326881213 0.059760721826116338
leaf_weight=2188.9955681115389 268.26600961387157 729.58100867271423 448.56706568598747 457.45976939797401 1550.4661308825016 766.1105435192585 148.64612480998039 405.80355896055698 255.773885846138 117.98020423948765 327.55998603999615 580.79170478880405 216.61334222555161 508.06053760647774
leaf_count=2498 514 1625 1331 1145 2973 1961 553 1381 555 524 883 750 505 799
internal_value=0 0.587153 0.403684 0.251987 0.723511 0.627739 0.107672 0.208039 0.586063 -0.213939 0.507499 0.864491 0.766095 0.865562
internal_weight=0 6781.68 2891.37 1578.46 3890.31 2316.58 1121 854.371 1312.91 266.626 1057.14 1573.73 992.94 776.327
internal_count=17997 15499 7997 4934 7502 4934 3789 2712 3063 1077 2508 2568 1818 1313
cat_boundaries=0 1 2
cat_threshold=2 2
shrinkage=0.06


Tree=15
num_leaves=15
num_cat=5
split_feature=6 9 19 0 12 11 7 11 14 3 17 19 11 2
split_gain=631.841 158.742 137.252 129.733 94.5636 58.4549 35.0675 33.3798 32.9624 27.9237 26.8521 18.8842 13.2455 11.2577
threshold=0 1 579.50000000000011 145000.00000000003 156284.00000000003 2077.5000000000005 2 839.00000000000011 1.0000000180025095e-35 3 4571.0000000000009 29.500000000000004 219734.50000000003 4
decision_type=1 1 2 2 2 2 1 2 2 1 2 2 2 1
left_child=6 -2 7 10 5 -5 -1 -3 -9 -7 13 -10 -6 -4
right_child=1 2 3 4 12 9 -8 8 11 -11 -12 -13 -14 -15
leaf_value=0.072371401729667592 0.066180315571498199 0.049761015083246075 0.026410718834452871 0.02357107062075714 0.024144677795826068 -0.014073957466750116 0.056202090378641233 0.021485539188363316 0.054295586777368336 0.0057490794465881474 0.01799147807911216 0.032794431760247801 0.044774095943568341 0.03818210827156325
leaf_weight=1742.7822885215282 454.5058249682188 1027.7839692682028 364.55955205857754 390.09262596070766 206.47574073076248 489.68173785507679 667.92130753397942 417.23590791225433 293.81284818053246 535.66355058550835 362.49988488852978 294.40526895225048 244.99504609405994 1479.305427968502
leaf_count=1792 666 1719 864 974 562 1866 891 994 517 1854 974 642 554 3128
internal_value=0 0.532859 0.490423 0.384501 0.190488 0.063381 1.13152 0.702621 0.573077 -0.0619659 0.548664 0.72557 0.588991 0.597579
internal_weight=0 6561.02 6106.51 4073.27 1866.91 1415.44 2410.7 2033.24 1005.45 1025.35 2206.36 588.218 451.471 1843.86
internal_count=17997 15314 14648 10776 5810 4694 2683 3872 2153 3720 4966 1159 1116 3992
cat_boundaries=0 1 2 3 4 5
cat_threshold=2 2 2 4 2
shrinkage=0.06


Tree=16
num_leaves=15
num_cat=4
split_feature=5 8 18 12 18 20 12 0 12 6 7 14 0 13
split_gain=924.392 164.342 122.839 73.7894 61.4438 45.8116 41.1793 54.1248 103.939 20.1676 34.5009 18.2881 23.7107 33.0392
threshold=0 1 1500.5000000000002 2363.0000000000005 16683.500000000004 2051.5000000000005 5595.0000000000009 75000.000000000015 72268.500000000015 2 3 10124.500000000002 195000.00000000003 1.0000000180025095e-35
decision_type=1 1 2 2 2 2 2 2 2 1 1 2 2 2
left_child=3 -2 5 -1 6 11 -4 -8 -9 10 -5 12 13 -3
right_child=1 2 4 9 -6 -7 7 8 -10 -11 -12 -13 -14 -15
leaf_value=0.045981367599870496 0.057456813095998656 0.027245611346886651 0.030367822831573996 0.0695615622921541 -0.017086372839922096 0.0095613630207862631 0.025593717197488278 -0.014178425411445898 0.01786885397650901 0.077285457566048141 0.051371930094986841 0.024593921601868251 0.028165076993131807 0.052518600372717099
leaf_weight=686.93364621698856 472.38024933636189 271.89239764213562 514.14054903388023 1527.8498584032059 232.0795651525259 294.86171223223209 679.74367697536945 601.34532287716866 924.38759091496468 643.49349924921989 497.66906222701073 451.85254727303982 503.00115531682968 590.95781023800373
leaf_count=1097 712 568 1290 1592 907 818 1580 2247 2702 710 664 1016 1074 1020
internal_value=0 0.393504 0.340886 1.05864 0.209127 0.52498 0.251274 0.191862 0.0872981 1.13387 1.08487 0.584291 0.641983 0.742581
internal_weight=0 5536.64 5064.26 3355.95 2951.7 2112.57 2719.62 2205.48 1525.73 2669.01 2025.52 1817.7 1365.85 862.85
internal_count=17997 13934 13222 4063 8726 4496 7819 6529 4949 2966 2256 3678 2662 1588
cat_boundaries=0 1 2 3 4
cat_threshold=2 2 2 2
shrinkage=0.06


Tree=17
num_leaves=15
num_cat=3
split_feature=7 10 19 0 11 15 11 18 0 12 9 0 4 14
split_gain=543.713 142.924 109.252 101.722 71.8773 57.3598 53.8615 46.9375 34.2429 39.4855 27.6211 25.2099 21.6134 35.5054
threshold=0 1 579.50000000000011 145000.00000000003 219734.50000000003 6406.5000000000009 85420.000000000015 4984.5000000000009 45000.000000000007 45902.000000000007 2 265000.00000000006 45.500000000000007 316.50000000000006
decision_type=1 1 2 2 2 2 2 2 2 2 1 2 2 2
left_child=10 -2 12 7 5 11 -7 8 -4 -10 -1 -5 13 -3
right_child=1 2 3 4 -6 6 -8 -9 9 -11 -12 -13 -14 -15
leaf_value=0.069757212429737106 0.058459926963620276 0.027191690655947197 0.043978078667264053 0.029101713794068552 0.038366273246480974 -0.016068119294169774 0.01134692747245798 0.00555598762970672 0.01648774532610392 0.036238663813628093 0.055912069120385335 0.0035200448544788301 0.050694493341869158 0.045100289109342391
leaf_weight=1095.0927658975124 516.7371314316988 1006.5041275918484 586.99492780864239 385.35463519394398 273.8921812325716 557.67224934697151 480.08784201741219 280.22243013978004 696.56904771924019 764.1123633235693 985.62348562479019 216.64774748682976 349.47116141021252 659.7994414716959
leaf_count=1148 788 2040 1024 966 604 2137 1452 792 1639 1635 1341 663 582 1186
internal_value=0 0.46887 0.427129 0.336037 0.165234 0.0860274 -0.0564232 0.476446 0.528975 0.446998 1.05331 0.33159 0.618802 0.571381
internal_weight=0 6774.07 6257.33 4241.55 1913.65 1639.76 1037.76 2327.9 2047.68 1460.68 2080.72 602.002 2015.77 1666.3
internal_count=17997 15508 14720 10912 5822 5218 3589 5090 4298 3274 2489 1629 3808 3226
cat_boundaries=0 1 2 3
cat_threshold=2 2 2
shrinkage=0.06


Tree=18
num_leaves=15
num_cat=3
split_feature=6 10 19 0 11 12 10 13 13 16 22 0 11 14
split_gain=532.63 149.113 92.1956 90.2648 53.1457 62.9665 40.1567 32.0355 28.2239 21.5481 21.0385 26.6313 22.8526 31.1494
threshold=0 1 851.00000000000011 95000.000000000015 97164.500000000015 4566.5000000000009 2 25628.500000000004 1782.5000000000002 10767.500000000002 540.50000000000011 185000.00000000003 417.00000000000006 1.0000000180025095e-35
decision_type=1 1 2 2 2 2 1 2 2 2 2 2 2 2
left_child=6 -2 10 7 5 8 -1 -4 -5 -7 12 -12 -3 -14
right_child=1 2 3 4 -6 9 -8 -9 -10 -11 11 -13 13 -15
leaf_value=0.06884184622192023 0.056516543597611213 0.044262092745301532 0.019088352405782036 0.0036390080168953601 0.021846487574582664 -0.020756752947865189 0.052592064269905869 0.036682409917378214 0.030713772297283233 -0.0005932864907797576 0.032886408583464082 0.009357909449122806 0.015840970675973304 0.041043953320463011
leaf_weight=996.22067713737488 526.16730511188507 764.69115775823593 665.8968156427145 249.10359133780003 861.90807092189789 279.98481623828411 1215.4083882719278 845.76583921909332 312.48352065682411 599.00579053163528 505.36616761982441 263.4721931964159 330.31609019637108 379.22440992295742
leaf_count=1033 823 1241 1492 658 2323 1063 1579 1745 803 2123 989 657 768 700
internal_value=0 0.43131 0.386954 0.292343 0.167694 0.0501776 0.998529 0.482202 0.311737 -0.116933 0.547831 0.413724 0.617771 0.488518
internal_weight=0 6583.39 6057.22 3814.15 2302.49 1440.58 2211.63 1511.66 561.587 878.991 2243.07 768.838 1474.23 709.541
internal_count=17997 15385 14562 10207 6970 4647 2612 3237 1461 3186 4355 1646 2709 1468
cat_boundaries=0 1 2 3
cat_threshold=2 2 2
shrinkage=0.06


Tree=19
num_leaves=15
num_cat=5
split_feature=5 11 11 20 3 1 6 19 4 4 13 20 7 4
split_gain=871.041 145.222 105.57 80.373 43.4435 56.4418 42.6972 39.0953 34.3134 42.7082 27.1872 31.0494 25.4683 24.0634
threshold=0 529.00000000000011 17262.000000000004 6300.5000000000009 1 2 3 6117.0000000000009 25.500000000000004 29.500000000000004 117427.00000000001 1300.5000000000002 4 32.500000000000007
decision_type=1 2 2 2 1 1 1 2 2 2 2 2 1 2
left_child=1 -1 3 7 8 13 12 -2 -4 -10 11 -11 -3 -6
right_child=2 6 4 -5 5 -7 -8 -9 9 10 -12 -13 -14 -15
leaf_value=0.031462340354844742 0.032473645835241871 0.063544085021218791 0.019474707046802243 -0.0056844034432795018 0.024032038705060935 0.032617258618690713 0.077452216849193151 0.0047280184484184964 -0.018238839656369028 0.01551002973307739 0.025592439215114383 -0.013989682978371144 0.048446003553086467 0.000998999980928329
leaf_weight=621.17296347022057 2284.2847589850426 1499.4866890907288 353.42245557904243 246.25613008439541 231.2894224524498 565.89676095545292 621.10842351615429 198.73167115449905 381.37037459015846 235.33283533155918 197.05728493630886 282.79866476356983 549.65177549421787 555.39739368855953
leaf_count=1087 4701 1654 845 841 580 1373 642 601 1256 587 519 965 737 1609
internal_value=0 0.959878 0.310186 0.450174 0.17386 0.302769 1.06119 0.504216 0.0536096 -0.033724 0.110389 -0.00985092 0.991571 0.129514
internal_weight=0 3291.42 5531.84 2729.27 2802.57 1352.58 2670.25 2483.02 1449.98 1096.56 715.189 518.132 2049.14 786.687
internal_count=17997 4120 13877 6143 7734 3562 3033 5302 4172 3327 2071 1552 2391 2189
cat_boundaries=0 1 2 3 4 5
cat_threshold=2 4 4 2 2
shrinkage=0.06


Tree=20
num_leaves=15
num_cat=4
split_feature=5 10 17 12 0 12 17 0 20 17 4 6 10 0
split_gain=710.362 129.515 98.7881 79.6602 62.2198 45.14 64.2129 57.8287 17.5743 17.2474 24.7526 17.0932 25.1601 13.4658
threshold=0 1 1199.5000000000002 2363.0000000000005 65000.000000000007 4566.5000000000009 2200.5000000000005 355000.00000000006 1000.5000000000001 1801.0000000000002 31.500000000000004 2 3 45000.000000000007
decision_type=1 1 2 2 2 2 2 2 2 2 2 1 1 2
left_child=3 -2 8 -1 9 -6 -7 -8 -3 10 -4 12 -5 -11
right_child=1 2 4 11 5 6 7 -9 -10 13 -12 -13 -14 -15
leaf_value=0.035383113841539478 0.048955876430838173 0.032463752730893435 -0.003277033100281582 0.063203993808078951 0.0224178840880901 -0.024804924402934341 0.0098601216790719023 -0.020499031037580231 0.016299006319554967 0.037150732638110813 0.024778113766196614 0.067260858726911357 0.049145686183562735 0.020607236937354764
leaf_weight=676.37164357304573 445.93987958133221 1086.1406249850988 204.6453105956316 862.44902554154396 436.03763879835606 293.93391881883144 1547.2962873131037 264.48364749550819 311.58694398403168 289.73490007221699 253.39724929630756 618.7936654239893 978.00182643532753 455.72936071455479
leaf_count=1119 743 2055 504 955 1089 1001 4618 1043 783 545 520 712 1280 1030
internal_value=0 0.298961 0.254136 0.893644 0.169468 0.080777 0.0201346 0.0904715 0.481004 0.35678 0.20406 0.977234 0.928892 0.450618
internal_weight=0 5588.93 5142.99 3135.62 3745.26 2541.75 2105.71 1811.78 1397.73 1203.51 458.043 2459.24 1840.45 745.464
internal_count=17997 13931 13188 4066 10350 7751 6662 5661 2838 2599 1024 2947 2235 1575
cat_boundaries=0 1 2 3 4
cat_threshold=2 2 2 2
shrinkage=0.06


Tree=21
num_leaves=15
num_cat=5
split_feature=5 11 7 11 2 6 21 4 10 20 16 22 20 11
split_gain=687.343 133.348 102.12 75.0745 49.7295 37.7458 32.4339 28.3589 26.2172 21.4813 20.8758 20.1254 24.3091 23.0214
threshold=0 990.50000000000011 1 8393.0000000000018 2 3 580.50000000000011 31.500000000000004 4 1.0000000180025095e-35 1.0000000180025095e-35 2000.5000000000002 1999.5000000000002 35871.500000000007
decision_type=1 2 1 2 1 1 2 2 1 2 2 2 2 2
left_child=1 10 -2 6 7 8 -4 -5 -3 -6 -1 12 -11 -13
right_child=2 5 3 4 9 -7 -8 -9 -10 11 -12 13 -14 -15
leaf_value=0.035824435539730901 0.042440501222453172 0.061332027929193303 0.030136207234068537 -0.015826429005216351 0.028129526469449811 0.071076564506161177 0.014481286441166185 0.0058782509186773102 0.047091994715177637 0.0095604913476199753 0.013530251309539897 -0.017241040919390323 0.028465399640399024 0.0081132664507554894
leaf_weight=369.50888440012932 484.15608739852905 856.0060990601778 1038.7476702183485 408.11085504293442 279.79074826836586 582.24363343417645 880.09414033591747 462.08908553421497 1020.127870619297 744.86207856237888 255.93142879009247 156.30338340997696 364.77835968136787 735.9649188965559
leaf_count=603 788 973 2056 1362 602 622 2274 1450 1363 1805 509 552 878 2160
internal_value=0 0.857295 0.268548 0.226652 0.131713 0.962181 0.382599 -0.071682 0.893153 0.209284 0.445027 0.17301 0.26292 0.061197
internal_weight=0 3083.82 5554.9 5070.74 3151.9 2458.38 1918.84 870.2 1876.13 2281.7 625.44 2001.91 1109.64 892.268
internal_count=17997 4070 13927 13139 8809 2958 4330 2812 2336 5997 1112 5395 2683 2712
cat_boundaries=0 1 2 3 4 5
cat_threshold=2 2 2 2 2
shrinkage=0.06


Tree=22
num_leaves=15
num_cat=4
split_feature=5 11 9 17 0 11 12 11 18 4 6 7 0 15
split_gain=668.354 110.733 80.5881 78.0402 52.2381 41.1908 89.6536 36.1651 37.7064 36.0942 29.8591 29.4827 24.3763 19.8598
threshold=0 990.50000000000011 1 442.00000000000006 235000.00000000003 219734.50000000003 44743.000000000007 130199.50000000001 4984.5000000000009 30.500000000000004 2 3 135000.00000000003 1.0000000180025095e-35
decision_type=1 2 1 2 2 2 2 2 2 2 1 1 2 2
left_child=1 13 -2 -4 7 6 -6 8 9 -5 11 -3 -10 -1
right_child=2 10 3 4 5 -7 -8 -9 12 -11 -12 -13 -14 -15
leaf_value=0.036398355702489865 0.042208172713996982 0.056906298093688717 0.028401570029484652 0.0054732427393158018 0.0043409225743989829 0.020840894284737638 -0.040570794500943183 0.033340004339006565 -0.01936582667823257 0.020160766081595349 0.067995012426543419 0.040063062997524948 0.0085774539463316733 0.01471854853863234
leaf_weight=377.33230084180832 367.8334724009037 1338.5340052694082 979.48513887822628 1019.1836913377047 536.6235236376524 211.96415260434151 227.99548465013504 293.86089417338371 214.22614021599293 1472.7298675775528 560.8260582536459 519.26376152038574 236.41294607520103 254.8510010689497
leaf_count=605 606 1607 1894 2587 1750 534 972 720 673 3409 612 745 781 502
internal_value=0 0.833621 0.251148 0.219105 0.159993 -0.0427169 -0.150849 0.221161 0.187755 0.235894 0.931023 0.869975 -0.0784384 0.460977
internal_weight=0 3050.81 5560.32 5192.48 4213 976.583 764.619 3236.41 2942.55 2491.91 2418.62 1857.8 450.639 632.183
internal_count=17997 4071 13926 13320 11426 3256 2722 8170 7450 5996 2964 2352 1454 1107
cat_boundaries=0 1 2 3 4
cat_threshold=2 2 2 2
shrinkage=0.06


Tree=23
num_leaves=15
num_cat=4
split_feature=6 9 19 0 11 11 17 10 2 16 18 0 4 11
split_gain=400.62 91.2164 65.342 63.4207 44.4535 72.141 39.5859 30.8148 26.7446 26.6806 17.9505 17.9081 17.4147 18.025
threshold=0 1 1.0000000180025095e-35 95000.000000000015 97164.500000000015 6530.5000000000009 4500.5000000000009 2 3 380.50000000000006 1675.5000000000002 335000.00000000006 31.500000000000004 489.50000000000006
decision_type=1 1 2 2 2 2 2 1 1 2 2 2 2 2
left_child=7 -2 12 6 5 9 8 -1 -4 -5 -10 -6 -3 -14
right_child=1 2 3 4 11 -7 -8 -9 10 -11 -12 -13 13 -15
leaf_value=0.058503787232644856 0.045903656893148126 0.019550293540762039 0.0086675669404857793 -0.0042292587529402402 0.023116474320076314 -0.0099050470439715019 -0.0032683303773712782 0.043479546071977807 0.0350824672089219 0.019271284969620304 0.021655681445272298 0.0020868392125466245 0.041013020106195945 0.024318290168947421
leaf_weight=855.65965820848942 432.0362091511488 503.96597385406494 292.58167760074139 225.82174831628799 732.2605474293232 863.10050150752068 195.75390709936619 1154.5754280686378 739.18336109817028 756.65934675931931 695.94009757041931 182.0107523649931 509.13546806573868 428.98922203481197
leaf_count=1019 668 1014 683 562 1859 3102 519 1617 1343 1862 1509 545 799 896
internal_value=0 0.320965 0.289642 0.23233 0.135181 0.0458545 0.371723 0.831244 0.420012 0.231162 0.476189 0.315499 0.475769 0.556313
internal_weight=0 6557.44 6125.4 4683.31 2759.85 1845.58 1923.46 2010.24 1727.71 982.481 1435.12 914.271 1442.09 938.125
internal_count=17997 15361 14693 11984 7930 5526 4054 2636 3535 2424 2852 2404 2709 1695
cat_boundaries=0 1 2 3 4
cat_threshold=2 2 2 2
shrinkage=0.06


Tree=24
num_leaves=15
num_cat=2
split_feature=5 11 8 17 0 20 12 11 11 0 17 11 11 16
split_gain=617.931 110.492 78.7787 71.9632 44.9317 32.9679 45.4629 46.2651 30.3485 36.5028 29.8331 25.7069 16.792 13.2954
threshold=0 143.00000000000003 1 442.00000000000006 245000.00000000003 8002.0000000000009 44743.000000000007 5172.0000000000009 132101.50000000003 45000.000000000007 1052.5000000000002 3329.0000000000005 839.00000000000011 8332.0000000000018
decision_type=1 2 1 2 2 2 2 2 2 2 2 2 2 2
left_child=1 -1 -2 12 8 6 7 -6 9 13 -3 -11 -4 -5
right_child=2 10 3 4 5 -7 -8 -9 -10 11 -12 -13 -14 -15
leaf_value=0.023759028968218875 0.03812977434770335 0.045780848762051192 0.033350651459928472 0.011254431835102953 -0.02136774011947026 0.013094165344746665 -0.033619607545197605 0.02035959241465217 0.029161049402057476 0.019629736927809147 0.059225094529802992 0.0033448162500899045 0.017296018078348491 0.029334979469464974
leaf_weight=559.16813278198242 445.97088065743446 1054.4664952605963 559.66849990189075 232.90329965949059 179.96685910224915 289.4481874704361 215.50847359001637 204.18653100728989 322.03997567296028 426.94096794724464 1361.2718997448683 1910.6783934086561 403.71141704916954 394.27058525383472
leaf_count=997 720 1437 984 500 561 950 838 666 784 978 1622 5322 881 757
internal_value=0 0.796558 0.232333 0.197348 0.140512 -0.0589271 -0.19271 0.0135219 0.194461 0.162792 0.889278 0.105318 0.443714 0.377012
internal_weight=0 2974.91 5585.29 5139.32 4175.94 889.11 599.662 384.153 3286.83 2964.79 2415.74 2337.62 963.38 627.174
internal_count=17997 4056 13941 13221 11356 3015 2065 1227 8341 7557 3059 6300 1865 1257
cat_boundaries=0 1 2
cat_threshold=2 2
shrinkage=0.06


Tree=25
num_leaves=15
num_cat=5
split_feature=5 11 7 18 11 2 22 18 20 16 6 7 13 11
split_gain=540.513 114.573 82.1545 59.8574 46.0855 45.8902 34.2994 27.9772 25.9886 25.6747 23.092 23.5558 21.984 20.0008
threshold=0 599.00000000000011 1 9998.0000000000018 8393.0000000000018 2 5000.5000000000009 4027.0000000000005 2800.5000000000005 1.0000000180025095e-35 3 4 291.50000000000006 50529.500000000007
decision_type=1 2 1 2 2 1 2 2 2 2 1 1 2 2
left_child=1 9 -2 4 6 7 8 13 12 -1 11 -3 -4 -6
right_child=2 10 3 -5 5 -7 -8 -9 -10 -11 -12 -13 -14 -15
leaf_value=0.031432748386435727 0.036399100243943619 0.051639278495824732 0.015483665751372047 -0.0082715574907461526 -0.0060259451047261743 0.012207378542581717 -0.0051377439315464721 0.0097041819034794502 0.0031985051282859872 0.0062824764930869475 0.061518065513475065 0.036082625539478753 0.031362907276469565 -0.033497269733300812
leaf_weight=363.84382331371307 472.29086971282959 1253.4270496666431 481.24269179999828 559.70803374052048 293.8600552380085 2052.8272145092487 174.88211287558079 267.77286350727081 210.2296915948391 244.19676148891449 537.55443227291107 486.37195929884911 902.45687583088875 141.27952709794044
leaf_count=596 785 1631 980 1919 867 5179 510 819 585 501 623 722 1766 514
internal_value=0 0.74118 0.207698 0.170639 0.208801 0.127944 0.334773 -0.0925849 0.380898 0.355535 0.844145 0.788172 0.43067 -0.249087
internal_weight=0 2885.39 5556.55 5084.26 4524.55 2755.74 1768.81 702.912 1593.93 608.041 2277.35 1739.8 1383.7 435.14
internal_count=17997 4073 13924 13139 11220 7379 3841 2200 3331 1097 2976 2353 2746 1381
cat_boundaries=0 1 2 3 4 5
cat_threshold=2 2 2 2 2
shrinkage=0.06


Tree=26
num_leaves=15
num_cat=6
split_feature=5 11 18 3 2 12 7 22 6 10 11 18 4 20
split_gain=541.228 117.167 65.5015 42.1443 27.2044 25.4653 21.964 28.2335 21.7465 22.762 19.2725 18.2832 17.0906 34.085
threshold=0 741.50000000000011 1500.5000000000002 1 2 6839.0000000000009 3 2000.5000000000002 4 5 19851.000000000004 15204.500000000002 36.500000000000007 3264.0000000000005
decision_type=1 2 2 1 1 2 1 2 1 1 2 2 2 2
left_child=1 -1 6 4 5 -4 -2 10 9 -3 -8 -5 13 -6
right_child=2 8 3 11 12 -7 7 -9 -10 -11 -12 -13 -14 -15
leaf_value=0.019467093334226165 0.031598240326668595 0.053765541370502032 0.0081838437002616695 0.014472277540468112 -0.00030399284306653742 -0.017914019112394472 0.022226244291955456 -0.0018419019330216579 0.060066204565997601 0.039888762299557456 0.0054587772779009502 -0.0083250826005705787 -0.0090070397191042238 0.025990020523806369
leaf_weight=593.21969477832317 396.45523877441883 777.03667196631432 187.29608951508999 1451.6032603830099 477.07724714279175 478.39276836812496 1311.5380980223417 271.44185319542885 530.26962842047215 940.69461850821972 303.97198480367661 138.74975177645683 236.00125889480114 282.62115778028965
leaf_count=1078 681 1006 505 3784 1276 1672 2603 728 622 1361 741 500 691 749
internal_value=0 0.719764 0.182854 0.0916965 -0.0196874 -0.176187 0.31267 0.267715 0.824082 0.769435 0.317855 0.208056 0.0849424 0.157964
internal_weight=0 2841.22 5535.15 3251.74 1661.39 665.689 2283.41 1886.95 2248 1717.73 1615.51 1590.35 995.7 759.698
internal_count=17997 4067 13930 9177 4893 2177 4753 4072 2989 2367 3344 4284 2716 2025
cat_boundaries=0 1 2 3 4 5 6
cat_threshold=2 4 2 2 2 2
shrinkage=0.06


Tree=27
num_leaves=15
num_cat=5
split_feature=5 11 7 17 0 17 11 1 20 2 9 20 11 13
split_gain=468.203 91.4477 68.0954 60.6529 28.9307 24.0942 21.9621 34.8512 45.8501 25.2291 21.7405 20.2423 22.2805 27.8384
threshold=0 143.00000000000003 1 1999.5000000000002 425000.00000000006 1000.5000000000001 4063.0000000000005 2 3795.0000000000005 3 4 2198.0000000000005 16621.500000000004 20992.500000000004
decision_type=1 2 1 2 2 2 2 1 2 1 1 2 2 2
left_child=1 -1 -2 11 6 10 -5 8 -8 -9 -3 12 -4 -14
right_child=2 5 3 4 -6 -7 7 9 -10 -11 -12 -13 13 -15
leaf_value=0.019265619525075765 0.032504953983153499 0.050106537384951015 0.022491894612367953 0.018530637997421304 -0.02160147719569349 0.05197130683033023 -0.013138426140976028 -0.0032429235557469467 0.0093628994260268154 0.01808375423893584 0.031789760490905733 0.0023094825621094634 -0.0087102756715318908 0.018771240026684389
leaf_weight=552.59794573485851 481.54133930802345 398.09224914014339 1397.4129451960325 346.38943235576153 162.9057310372591 1266.1319203227758 789.63586476445198 292.79358933866024 555.2418749332428 627.99167403578758 563.45740655064583 327.22594568133354 213.59265168011189 350.37558263540268
leaf_count=1005 810 533 2737 873 652 1659 2410 925 1689 1583 878 887 558 798
internal_value=0 0.68523 0.182401 0.148227 0.0488347 0.775558 0.074334 0.0384806 -0.0641434 0.188371 0.656218 0.268742 0.307156 0.139385
internal_weight=0 2780.28 5545.11 5063.57 2774.96 2227.68 2612.05 2265.66 1344.88 920.785 961.55 2288.61 1961.38 563.968
internal_count=17997 4075 13922 13112 8132 3070 7480 6607 4099 2508 1411 4980 4093 1356
cat_boundaries=0 1 2 3 4 5
cat_threshold=2 2 4 2 2
shrinkage=0.06


Tree=28
num_leaves=15
num_cat=3
split_feature=5 10 18 12 20 14 19 0 15 18 15 17 3 19
split_gain=468.737 81.8174 59.1517 50.6484 51.8645 45.9175 36.0467 51.6485 39.2801 34.2462 33.0787 27.8597 27.8032 26.7026
threshold=0 1 4984.5000000000009 10012.500000000002 232.50000000000003 193631.00000000003 579.50000000000011 145000.00000000003 6406.5000000000009 1386.5000000000002 28124.000000000004 1021.5000000000001 2 4501.0000000000009
decision_type=1 1 2 2 2 2 2 2 2 2 2 2 1 2
left_child=3 -2 6 4 -1 12 -3 -8 9 -9 -10 -5 -4 -14
right_child=1 2 5 11 -6 -7 7 8 10 -11 -12 -13 13 -15
leaf_value=0.038150359868623564 0.034955136467060784 0.019078810746009631 -0.018969274692696231 0.035982177198300054 0.0077640501841429836 0.022270589342106212 0.012916791491561205 -0.0087340958450284629 -0.04103797671259829 0.025590943018444112 -0.0058287589094484149 0.051481887592751401 0.014470861719536092 -0.012392403172834267
leaf_weight=641.48809118568897 420.3200501948595 1331.0087753385305 512.83891595900059 660.31025013327599 295.30569271743298 201.71657554805279 1694.5000733584166 218.20338587462902 148.19386917352676 201.05300191044807 273.04802012443542 1135.1969235241413 257.91606892645359 275.50678026676178
leaf_count=971 737 2655 1808 1005 582 506 3908 586 576 506 959 1510 690 998
internal_value=0 0.158473 0.123615 0.664686 0.476195 -0.0656763 0.18472 0.114752 -0.0879197 0.128773 -0.303591 0.763029 -0.1499 0.00993823
internal_weight=0 5534.31 5113.99 2732.3 936.794 1247.98 3866.01 2535 840.498 419.256 421.242 1795.51 1046.26 533.423
internal_count=17997 13929 13192 4068 1553 4002 9190 6535 2627 1092 1535 2515 3496 1688
cat_boundaries=0 1 2 3
cat_threshold=2 2 4
shrinkage=0.06


Tree=29
num_leaves=15
num_cat=5
split_feature=5 11 9 0 11 3 0 2 17 19 19 12 10 16
split_gain=387.047 80.8512 74.9568 43.7444 52.1812 40.0657 41.1642 27.2912 23.8212 23.3168 23.0989 21.2584 21.2289 19.563
threshold=0 990.50000000000011 1 45000.000000000007 781.00000000000011 2 195000.00000000003 3 1329.5000000000002 1029.0000000000002 3028.5000000000005 72268.500000000015 4 132.00000000000003
decision_type=1 2 1 2 2 1 2 1 2 2 2 2 1 2
left_child=1 13 -2 -4 -5 7 11 9 12 -6 -9 -7 -3 -1
right_child=2 8 3 4 5 6 -8 10 -10 -11 -12 -13 -14 -15
leaf_value=0.026798570928659105 0.035978704319320605 0.047271449500558463 0.020862737357610205 0.019903911208838054 0.002873733098705361 0.011144238899582059 -0.0021636944826155897 -0.0046061163985970741 0.04871557985055474 -0.019639987668774471 0.013445018204908015 0.030585143593879489 0.028735757703456131 0.0050481337776331642
leaf_weight=364.86126548051834 350.20005719363689 357.34733532369137 733.63975510001183 713.51511962711811 240.32841296494007 807.36028023064137 767.29518714547157 688.12324085831642 1100.3357613682747 532.64102013409138 405.64237633347511 270.2734962105751 589.20354636013508 251.47228844463825
leaf_count=608 584 505 1432 1409 606 1930 2407 1854 1517 1903 1162 622 948 510
internal_value=0 0.616261 0.151947 0.121555 0.0840613 0.0364502 0.140959 -0.066838 0.71187 -0.210669 0.0348078 0.267001 0.595558 0.298735
internal_weight=0 2663.22 5509.02 5158.82 4425.18 3711.66 1844.93 1866.74 2046.89 772.969 1093.77 1077.63 946.551 616.334
internal_count=17997 4088 13909 13325 11893 10484 4959 5525 2970 2509 3016 2552 1453 1118
cat_boundaries=0 1 2 3 4 5
cat_threshold=2 2 4 2 2
shrinkage=0.06


Tree=30
num_leaves=15
num_cat=6
split_feature=5 11 8 18 6 9 3 1 11 16 15 11 4 4
split_gain=330.081 88.105 54.9998 35.4981 24.751 28.2944 22.5535 35.2589 43.1633 41.391 22.5265 22.3748 18.9957 22.5889
threshold=0 990.50000000000011 1 1500.5000000000002 2 3 4 5 7226.5000000000009 28644.500000000004 1.0000000180025095e-35 24516.000000000004 35.500000000000007 25.500000000000004
decision_type=1 2 1 2 1 1 1 1 2 2 2 2 2 2
left_child=1 10 -2 -4 5 -3 7 8 -5 -10 -1 -9 13 -8
right_child=2 4 3 6 -6 -7 12 11 9 -11 -12 -13 -14 -15
leaf_value=0.025552069174163604 0.030920884425487238 0.047023134144261375 0.014583421507318735 0.024977100017420172 0.054075839795565621 0.030744142422782925 0.0092238563185784248 0.0040633282185639167 -0.027072566664744203 0.0050920760912471488 0.001896585834205346 0.029572205494244976 0.010474221436096035 -0.0096216615023964717
leaf_weight=360.14002121984959 431.55411079525948 731.41843308508396 2112.2253870368004 224.37950038909912 479.59320178627968 810.06892782449722 314.63324126601219 181.57520757615566 215.13982383906841 435.75206154584885 242.50744940340519 388.96247087419033 415.01341193914413 841.00315348803997
leaf_count=603 721 1067 4490 544 603 1302 803 520 723 1258 503 950 1156 2754
internal_value=0 0.602801 0.172486 0.143636 0.702865 0.641139 0.0740181 0.164142 0.0380614 -0.0923222 0.267217 0.357566 -0.00894294 -0.0748464
internal_weight=0 2623.73 5560.24 5128.68 2021.08 1541.49 3016.46 1445.81 875.271 650.892 602.647 570.538 1570.65 1155.64
internal_count=17997 4078 13919 13198 2972 2369 8708 3995 2525 1981 1106 1470 4713 3557
cat_boundaries=0 1 2 3 4 5 6
cat_threshold=2 2 2 2 2 4
shrinkage=0.06


Tree=31
num_leaves=15
num_cat=4
split_feature=5 10 8 13 16 19 4 1 4 12 17 4 14 16
split_gain=348.991 61.156 39.3968 48.1769 36.2913 28.1923 27.3394 25.9452 36.115 38.3964 24.0879 22.2997 21.9928 36.0014
threshold=0 1 2 7362.0000000000009 330.50000000000006 579.50000000000011 28.500000000000004 3 35.500000000000007 66143.500000000015 4571.0000000000009 25.500000000000004 6821.5000000000009 6001.5000000000009
decision_type=1 1 1 2 2 2 2 1 2 2 2 2 2 2
left_child=2 -2 -1 4 -4 6 -3 11 9 -9 -10 -7 -13 -14
right_child=1 5 3 -5 -6 7 -8 8 10 -11 -12 12 13 -15
leaf_value=0.045126536746544425 0.030630231296481465 -0.0011679812270713407 0.027977376230576275 0.038191689591735127 -0.00096372854155786134 0.013396445160839227 0.018255200740171576 -0.009078473090847956 0.026773534554213194 0.021168516609429592 0.0037722134372130118 0.0080131076417728243 -0.035522754083826352 -0.0035191004629144605
leaf_weight=932.46995301544666 416.85742165148258 339.59160555899143 422.81233601272106 976.71950955688953 247.16564856469631 360.43289852142334 1125.6395599842072 484.21557696163654 504.40987451374531 219.61232474446297 242.80492748320103 484.63978140056133 141.51348136365414 1195.8011580258608
leaf_count=1390 744 775 692 1467 515 865 2269 1385 1128 592 749 1249 511 3666
internal_value=0 0.142239 0.587869 0.494865 0.288342 0.11213 0.229226 0.0649092 0.168542 0.00598937 0.321656 -0.00399488 -0.048955 -0.115095
internal_weight=0 5515.52 2579.17 1646.7 669.978 5098.66 1465.23 3633.43 1451.04 703.828 747.215 2182.39 1821.95 1337.31
internal_count=17997 13933 4064 2674 1207 13189 3044 10145 3854 1977 1877 6291 5426 4177
cat_boundaries=0 1 2 3 4
cat_threshold=2 2 2 4
shrinkage=0.06


Tree=32
num_leaves=15
num_cat=2
split_feature=5 11 10 18 11 0 11 17 0 17 16 12 19 21
split_gain=298.392 62.3511 55.9422 36.7192 26.055 35.0668 76.7458 33.9501 24.7656 23.4493 22.5129 20.4111 19.2853 16.9007
threshold=0 143.00000000000003 1 12203.000000000002 8393.0000000000018 65000.000000000007 76917.500000000015 5939.5000000000009 245000.00000000003 1000.5000000000001 23929.000000000004 3347.5000000000005 3600.5000000000005 7924.0000000000009
decision_type=1 2 1 2 2 2 2 2 2 2 2 2 2 2
left_child=1 -1 -2 4 7 10 12 11 -8 -3 -6 -4 -7 -5
right_child=2 9 3 13 5 6 8 -9 -10 -11 -12 -13 -14 -15
leaf_value=0.015442231247019168 0.029990183790779276 0.031024923381273811 0.012760359875273184 -0.023199748867371042 0.0070116036034685624 -0.019099146962526011 0.016966506275938827 -0.01168637807750327 -0.004595322553482932 0.04424245120106117 0.025222718549932938 0.028521903808560779 0.0014312876414172078 0.0026684636511184554
leaf_weight=542.76891873776913 403.93263283371925 863.50570015609264 1320.7853161692619 200.83348505198956 728.16249668598175 622.2596048116684 702.61521092057228 171.93134169280529 263.75949567556381 1097.1653561294079 367.82183776795864 381.13427868485451 224.01159830391407 166.13857723772526
leaf_count=997 718 1409 2762 728 1607 2001 1820 536 852 1629 743 803 801 591
internal_value=0 0.55732 0.141479 0.113368 0.13676 0.077516 -0.0078627 0.228719 0.184691 0.640355 0.218724 0.271501 -0.227744 -0.191475
internal_weight=0 2503.44 5553.39 5149.45 4782.48 2908.63 1812.65 1873.85 966.375 1960.67 1095.98 1701.92 846.271 366.972
internal_count=17997 4035 13962 13244 11925 7824 5474 4101 2672 3038 2350 3565 2802 1319
cat_boundaries=0 1 2
cat_threshold=2 2
shrinkage=0.06


Tree=33
num_leaves=15
num_cat=2
split_feature=5 20 0 9 13 21 21 12 13 20 12 19 19 19
split_gain=260.791 54.57 51.3013 49.7753 37.684 28.1835 25.1746 23.7131 51.0398 31.9183 27.1167 21.7288 30.242 18.9583
threshold=0 4.5000000000000009 195000.00000000003 1 7122.0000000000009 108.50000000000001 1119.5000000000002 4566.5000000000009 138085.50000000003 5597.5000000000009 47934.500000000007 326.50000000000006 1045.5000000000002 4273.0000000000009
decision_type=1 2 2 1 2 2 2 2 2 2 2 2 2 2
left_child=3 -2 6 -1 5 -5 11 -4 9 10 -9 -3 -13 -8
right_child=1 2 7 4 -6 -7 13 8 -10 -11 -12 12 -14 -15
leaf_value=0.044564959108515989 0.019798643069215329 0.030295018663057251 0.0065938800601561039 0.024304472233091214 0.033373426107157364 -0.0013375561142191469 0.0084348776789686455 -0.01745064597466665 0.0080070246827876959 -0.0012734270720709258 -0.050243933606958953 -0.0016236550155316141 0.019668570994344652 -0.0078144481990388634
leaf_weight=776.32637920975685 1222.7639708817005 302.1336178034544 530.53425313532352 434.15683215856552 1050.0287083387375 239.39633782207966 1156.4610380828381 224.35166768729687 375.9443951100111 204.41562104225159 152.46515317261219 374.68674612045288 668.76821054518223 332.88742382824421
leaf_count=1200 2457 529 1333 730 1673 500 2884 844 1032 824 667 861 1448 1015
internal_value=0 0.143462 0.0907022 0.532498 0.437798 0.253178 0.16962 -0.0596819 -0.153675 -0.339389 -0.511988 0.268761 0.200382 0.0800493
internal_weight=0 5545.41 4322.65 2499.91 1723.58 673.553 2834.94 1487.71 957.177 581.232 376.817 1345.59 1043.45 1489.35
internal_count=17997 13894 11437 4103 2903 1230 6737 4700 3367 2335 1511 2838 2309 3899
cat_boundaries=0 1 2
cat_threshold=2 2
shrinkage=0.06


Tree=34
num_leaves=15
num_cat=6
split_feature=5 11 20 10 20 19 2 1 6 10 15 15 4 11
split_gain=273.421 72.8292 58.4836 36.4878 26.2798 39.3869 30.8392 27.5413 17.3231 25.8732 16.9795 15.9291 23.9764 17.0074
threshold=0 990.50000000000011 1.0000000180025095e-35 1 300.50000000000006 579.50000000000011 2 3 4 5 1.0000000180025095e-35 1.0000000180025095e-35 37.500000000000007 2908.5000000000005
decision_type=1 2 2 1 2 2 1 1 1 1 2 2 2 2
left_child=1 10 11 -4 -5 -6 -7 -8 9 -3 -1 12 13 -2
right_child=2 8 3 4 5 6 7 -9 -10 -11 -12 -13 -14 -15
leaf_value=0.020989861636400216 0.014859302674891984 0.042621249360018668 0.023190652298247297 -0.018808010651667369 0.015889617507012427 -0.0088663788708975132 -0.0013289345255444816 0.012667236379761051 0.047006601240508816 0.026339761251867592 0.0003784674733268217 0.028375232591419209 0.026034132534270116 -0.0081650648761443373
leaf_weight=356.52578167617321 269.92671157419682 626.40307834744453 316.84371571242809 206.49676865339279 711.34713417291641 934.51964527368546 1276.3070699870586 838.75807856023312 448.56531675159931 800.26291044056416 241.24300590157509 398.60819444060326 333.05379347503185 201.87228336930275
leaf_count=613 528 1016 600 559 1468 3096 3613 2107 621 1373 502 754 630 517
internal_value=0 0.515144 0.114661 0.0599474 0.0338677 0.0529383 0.00351312 0.0703573 0.612034 0.558141 0.211195 0.309441 0.228476 0.0834615
internal_weight=0 2473 5487.73 4284.27 3967.43 3760.93 3049.58 2115.07 1875.23 1426.67 597.769 1203.46 804.853 471.799
internal_count=17997 4125 13872 11443 10843 10284 8816 5720 3010 2389 1115 2429 1675 1045
cat_boundaries=0 1 2 3 4 5 6
cat_threshold=2 2 2 4 2 2
shrinkage=0.06


Tree=35
num_leaves=15
num_cat=2
split_feature=8 18 6 20 16 0 12 0 18 17 18 15 4 4
split_gain=210.22 63.4686 47.4246 30.2117 43.8246 33.4796 28.6498 19.1863 16.117 15.5823 21.2226 14.3567 15.1473 12.0953
threshold=0 9998.0000000000018 1 1.0000000180025095e-35 1.0000000180025095e-35 145000.00000000003 156284.00000000003 285000.00000000006 1435.5000000000002 3109.5000000000005 16683.500000000004 1.0000000180025095e-35 35.500000000000007 34.500000000000007
decision_type=1 2 1 2 2 2 2 2 2 2 2 2 2 2
left_child=13 2 8 7 -5 -6 -7 11 -2 -3 -11 12 -4 -1
right_child=1 9 3 4 5 6 -8 -9 -10 10 -12 -13 -14 -15
leaf_value=0.03048871131789286 0.03283360320204172 0.005171182706424457 0.0018368142176992488 -0.017754258761058777 0.013093976383664187 -0.0023419089032172308 0.019319451608601251 0.030712052024337771 0.014951915941247724 -0.0045874385208126934 -0.032428307591420708 0.025315907550107201 0.018162695146838489 0.042219550282800562
leaf_weight=656.15050442516804 440.07229046523571 187.74267618358135 442.56166636943817 248.27257484197617 2157.9385333657265 1251.1370518952608 266.66277377307415 288.84262506663799 308.77255897223949 247.13954336941242 163.96196113526821 270.55896483361721 380.48185460269451 611.12492576241493
leaf_count=1139 717 502 964 665 4822 3763 651 520 570 783 697 515 723 966
internal_value=0 0.158046 0.188759 0.155514 0.110728 0.138193 0.0243964 0.282638 0.42434 -0.152513 -0.261523 0.222094 0.156401 0.602429
internal_weight=0 6654.15 6055.3 5306.46 3924.01 3675.74 1517.8 1382.45 748.845 598.844 411.102 1093.6 823.044 1267.28
internal_count=17997 15892 13910 12623 9901 9236 4414 2722 1287 1982 1480 2202 1687 2105
cat_boundaries=0 1 2
cat_threshold=2 2
shrinkage=0.06


Tree=36
num_leaves=15
num_cat=5
split_feature=5 8 9 18 13 13 6 1 12 17 0 13 0 12
split_gain=230.875 50.1999 46.3481 40.784 33.473 44.6602 27.6523 26.4931 22.3495 31.0167 47.3599 21.8635 26.3173 17.6111
threshold=0 1 2 16683.500000000004 8529.5000000000018 188.50000000000003 3 4 4566.5000000000009 11910.000000000002 305000.00000000006 115240.50000000001 255000.00000000003 14308.000000000002
decision_type=1 1 1 2 2 2 1 1 2 2 2 2 2 2
left_child=2 -2 -1 7 5 -4 -6 8 -3 10 -10 12 13 -9
right_child=1 3 4 -5 6 -7 -8 11 9 -11 -12 -13 -14 -15
leaf_value=0.040978765878357547 0.025688683229454938 0.008737856870347489 0.023850166510259813 -0.020630172406004354 0.021953429222499526 -0.0082421224511152399 0.042939348387852454 0.019051771234488667 -0.0019620667757753005 0.021473732881173144 -0.04076612956634109 0.027449018750727597 -0.0085553858250223234 0.0056574405723767646
leaf_weight=718.42496059834957 423.27532507479191 1039.8091166168451 444.63515888154507 227.79361914098263 593.24493862688541 240.56757301092148 365.1727978438139 636.44416545331478 1549.8866195231676 179.12365099787712 122.15338180959225 246.42459271848202 278.14491681754589 794.56662490963936
leaf_count=1197 723 2299 752 906 1073 523 530 1295 4248 505 525 589 871 1961
internal_value=0 0.097286 0.471103 0.0696875 0.378492 0.209715 0.499157 0.0891236 0.0283149 -0.0375822 -0.0799493 0.179018 0.138869 0.193576
internal_weight=0 5497.62 2362.05 5074.35 1643.62 685.203 958.418 4846.55 2890.97 1851.16 1672.04 1955.58 1709.16 1431.01
internal_count=17997 13922 4075 13199 2878 1275 1603 12293 7577 5278 4773 4716 4127 3256
cat_boundaries=0 1 2 3 4 5
cat_threshold=2 2 2 2 4
shrinkage=0.06


Tree=37
num_leaves=15
num_cat=4
split_feature=5 11 7 20 11 14 18 0 16 3 16 11 0 6
split_gain=230.856 57.6579 52.2449 22.6914 26.8444 39.2806 25.96 36.7151 26.5921 22.8065 15.1989 18.4475 15.014 14.1888
threshold=0 990.50000000000011 1 1730.5000000000002 18667.500000000004 28389.500000000004 1140.5000000000002 55000.000000000007 177303.00000000003 2 9383.0000000000018 7016.0000000000009 85000.000000000015 3
decision_type=1 2 1 2 2 2 2 2 2 1 2 2 2 1
left_child=1 -1 -2 4 10 -6 -5 -8 9 -9 11 -4 -7 -3
right_child=2 13 3 6 5 12 7 8 -10 -11 -12 -13 -14 -15
leaf_value=0.011868475220096451 0.024771132146062774 0.030466577264205572 0.011802371958366321 -0.022920568877508155 -0.011937043141177618 0.019905943785465667 0.022133186714822749 -0.011976180478301634 0.017977915795083451 0.0024431552143470911 0.022344659199365721 -0.0066217974981957464 -0.0024859464231035294 0.043208449852523229
leaf_weight=596.08023652434349 460.67143720388412 1322.2892427742481 1196.7559106200933 176.79388621449471 525.17570893466473 302.90213412046432 259.51756837964058 781.26784220337868 211.25990571081638 798.46217009425163 376.13192903995514 233.87585510313511 167.36167474091053 412.84723879396915
leaf_count=1114 812 2336 2477 534 1410 632 542 2666 536 2431 787 604 511 605
internal_value=0 0.466128 0.0905257 0.0610026 0.120886 -0.0109758 -0.0143379 0.0173626 -0.0335738 -0.078134 0.193536 0.146507 0.198949 0.558305
internal_weight=0 2331.22 5490.18 5029.5 2802.2 995.44 2227.3 2050.51 1790.99 1579.73 1806.76 1430.63 470.264 1735.14
internal_count=17997 4055 13942 13130 6421 2553 6709 6175 5633 5097 3868 3081 1143 2941
cat_boundaries=0 1 2 3 4
cat_threshold=2 2 4 2
shrinkage=0.06


Tree=38
num_leaves=15
num_cat=4
split_feature=5 10 10 0 15 14 21 17 17 4 18 3 4 17
split_gain=192.777 43.4156 37.7797 28.1889 30.0886 26.7559 33.2667 25.1131 24.2136 14.5575 13.6456 21.5721 26.802 21.1014
threshold=0 1 2 45000.000000000007 2051.0000000000005 13786.000000000002 500.50000000000006 999.50000000000011 1792.5000000000002 36.500000000000007 1060.5000000000002 3 37.500000000000007 3700.5000000000005
decision_type=1 1 1 2 2 2 2 2 2 2 2 1 2 2
left_child=2 -2 -1 8 9 6 -4 -7 -3 -5 -6 13 -13 -12
right_child=1 3 5 4 10 7 -8 -9 -10 -11 11 12 -14 -15
leaf_value=0.038639969029712389 0.024159586213304413 0.0057428720194934784 0.021592505749203923 0.0035601148560028728 -0.01393529344655459 0.015865241237501524 -0.0051728830599487435 0.036696175745917527 0.027931624525062072 0.015700589266890334 0.001498741877835293 0.015012870912975252 -0.0022880382285681185 -0.013718385999866802
leaf_weight=630.7189270183444 411.51613917946815 434.95952892303467 541.7435377240181 767.3856562525034 284.05991138517857 341.02612817287445 241.78295539319515 535.50781135261059 298.59211307764053 662.55670656263828 713.32725584506989 578.62212000787258 727.83212199807167 607.39523795247078
leaf_count=1106 753 906 935 1772 777 638 521 872 550 1382 2004 1557 2123 2101
internal_value=0 0.090269 0.435655 0.0649368 0.0343 0.356497 0.222219 0.476527 0.246247 0.153089 -0.0240469 -0.00153471 0.0895741 -0.0916593
internal_weight=0 5486.25 2290.78 5074.73 4341.18 1660.06 783.526 876.534 733.552 1429.94 2911.24 2627.18 1306.45 1320.72
internal_count=17997 13925 4072 13172 11716 2966 1456 1510 1456 3154 8562 7785 3680 4105
cat_boundaries=0 1 2 3 4
cat_threshold=2 2 2 4
shrinkage=0.06


Tree=39
num_leaves=15
num_cat=2
split_feature=5 11 11 9 0 11 11 16 19 11 13 12 18 20
split_gain=142.184 79.5444 27.2211 25.8034 20.2354 27.6142 46.769 32.815 21.6065 26.0969 19.5162 17.3457 16.2744 18.5966
threshold=0 143.00000000000003 781.00000000000011 1 65000.000000000007 108008.50000000001 18443.500000000004 19300.000000000004 4273.0000000000009 219734.50000000003 1569.5000000000002 47555.500000000007 1490.5000000000002 1300.5000000000002
decision_type=1 2 2 1 2 2 2 2 2 2 2 2 2 2
left_child=1 -1 -2 -4 11 6 10 -8 -7 -10 -6 12 -5 -14
right_child=2 -3 3 4 5 8 7 -9 9 -11 -12 -13 13 -15
leaf_value=0.0034643406089548204 0.016576168464836432 0.030523551064689809 0.0211886532678222 0.013587192096859936 -0.0051178175352273696 0.024457337199563823 -0.030156828472384972 -0.0057366867814835944 -0.0076772378560190429 0.019316587682429248 0.01072467465221032 0.02353361869081309 -0.0098695053272656354 0.012101024438896914
leaf_weight=507.00689804553986 802.71392281353474 1710.6675570756197 316.08664956688881 553.64534759521484 431.16549162566662 261.15505991876125 270.00490103662014 743.83479543030262 314.44326832890511 218.54270794987679 798.07316365838051 256.71231064200401 337.39484828710556 235.49960641562939
leaf_count=1006 1576 3021 576 1099 1073 648 966 2409 975 529 2252 525 818 524
internal_value=0 0.405621 0.105984 0.0771256 0.0573888 0.011729 -0.0450065 -0.204004 0.17198 0.0565194 0.0861299 0.157644 0.104189 -0.0139681
internal_weight=0 2217.67 5539.27 4736.56 4420.47 3037.22 2243.08 1013.84 794.141 532.986 1229.24 1383.25 1126.54 572.894
internal_count=17997 4027 13970 12394 11818 8852 6700 3375 2152 1504 3325 2966 2441 1342
cat_boundaries=0 1 2
cat_threshold=2 2
shrinkage=0.06


Tree=40
num_leaves=15
num_cat=3
split_feature=5 9 7 12 0 16 17 4 22 17 22 4 20 18
split_gain=140.025 44.5437 30.159 26.8476 20.2682 19.9786 16.735 15.9226 15.6829 16.3796 21.5736 17.9359 14.6184 20.2396
threshold=0 1 2 7548.5000000000009 45000.000000000007 7878.5000000000009 1122.5000000000002 36.500000000000007 925.50000000000011 5588.5000000000009 316.50000000000006 33.500000000000007 11015.500000000002 1033.5000000000002
decision_type=1 1 1 2 2 2 2 2 2 2 2 2 2 2
left_child=1 -1 -2 7 5 -4 -5 -3 9 10 11 -6 13 -10
right_child=2 3 4 6 8 -7 -8 -9 12 -11 -12 -13 -14 -15
leaf_value=0.03639707838955155 0.020396679732909064 -8.3740266357827756e-05 0.00068676235324167012 0.014051717994043604 -0.010307932351096291 0.021490992362068306 0.030832386443082616 0.01896483980826515 -0.01840152010170628 0.023549630522420355 0.015218062073089244 0.0068687159599701867 0.012256988933436085 9.070049409300331e-05
leaf_weight=658.67633502185345 445.37290868163109 356.43000121414661 268.73511350154877 346.54264783859253 382.83210135996342 435.42092959582806 559.16707716137171 283.73019331693649 235.63773694634438 196.73169156908989 485.99793621897697 510.93458338081837 304.44947220385075 2224.9789202660322
leaf_count=1206 808 728 582 663 962 823 964 501 639 500 1036 1117 982 6486
internal_value=0 0.388855 0.0904976 0.296069 0.0684795 0.225854 0.406863 0.139315 0.042955 0.122552 0.0840627 -0.00814424 -0.00242702 -0.028003
internal_weight=0 2204.55 5491.09 1545.87 5045.72 704.156 905.71 640.16 4341.56 1576.5 1379.76 893.767 2765.07 2460.62
internal_count=17997 4062 13935 2856 13127 1405 1627 1229 11722 3615 3115 2079 8107 7125
cat_boundaries=0 1 2 3
cat_threshold=2 2 2
shrinkage=0.06


Tree=41
num_leaves=15
num_cat=3
split_feature=9 19 10 12 0 1 17 12 22 17 22 4 4 16
split_gain=122.316 40.976 30.8435 31.8037 43.3894 25.1757 29.7854 19.4975 18.2246 33.3283 14.7751 16.1056 10.8115 10.2849
threshold=0 579.50000000000011 1 231327.00000000003 215000.00000000003 2 7668.5000000000009 47934.500000000007 1700.5000000000002 4499.5000000000009 3045.5000000000005 45.500000000000007 35.500000000000007 4990.5000000000009
decision_type=1 2 1 2 2 1 2 2 2 2 2 2 2 2
left_child=12 10 -3 4 5 6 -4 -7 -6 -10 11 13 -1 -2
right_child=1 2 3 -5 8 7 -8 -9 9 -11 -12 -13 -14 -15
leaf_value=0.023824242020635874 0.0097978275237331006 0.023341014314497407 -0.0029125280973144934 0.024103459739921052 -0.02295512501968559 0.0045112004343093193 0.022154653949440595 0.019753471847092516 0.010283970949348879 -0.016821280224190303 -6.3265081935510736e-06 0.026675880212416545 0.036618510640326292 0.021103950495587647
leaf_weight=543.7290560528636 1209.0390546023846 259.73927407711744 1601.1743428856134 222.6870304197073 288.76312512159348 723.85903833806515 191.00156433880329 518.55434572696686 291.63746365904808 371.13056334853172 265.65840092301369 352.87788584828377 422.54716543108225 380.90318968892097
leaf_count=1058 2428 507 4121 501 927 1681 508 1194 888 1458 634 614 753 725
internal_value=0 0.109657 0.0545839 0.0339449 0.0133987 0.071821 -0.00401646 0.181216 -0.172919 -0.0815695 0.221089 0.251334 0.490318 0.208441
internal_weight=0 6677.03 4468.55 4208.81 3986.12 3034.59 1792.18 1242.41 951.531 662.768 2208.48 1942.82 966.276 1589.94
internal_count=17997 16186 11785 11278 10777 7504 4629 2875 3273 2346 4401 3767 1811 3153
cat_boundaries=0 1 2 3
cat_threshold=2 2 4
shrinkage=0.06


Tree=42
num_leaves=15
num_cat=4
split_feature=5 11 8 18 18 11 2 22 14 13 17 7 13 12
split_gain=153.178 43.6421 29.2525 25.3056 45.3806 30.8568 37.013 26.9295 24.4175 18.1376 16.4119 15.1227 15.1127 14.646
threshold=0 143.00000000000003 1 4984.5000000000009 4000.5000000000005 16621.500000000004 2 2180.5000000000005 193631.00000000003 291.50000000000006 1021.5000000000001 3 12595.500000000002 42014.000000000007
decision_type=1 2 1 2 2 2 1 2 2 2 2 1 2 2
left_child=1 -1 -2 4 5 7 -7 9 12 -4 11 -3 -5 -8
right_child=2 10 3 8 -6 6 13 -9 -10 -11 -12 -13 -14 -15
leaf_value=0.0073857150478816172 0.019119642126917236 0.029564727035752931 0.0022703477539772984 0.0036495942786272688 0.031091142457307683 -0.020376749545978186 -0.0052020460097859508 -0.0070095238990580799 0.013915678166139733 0.015835987808258005 0.032865724070683847 0.012393502467487041 -0.013012081646529712 0.007612597365614638
leaf_weight=521.6319835036993 402.77539299428463 359.441685333848 525.21145595610142 261.78447668254375 221.60847945511341 346.47699993848801 595.52249573171139 345.85675373673439 203.16331833600998 1093.6379212737083 881.85391917824745 379.67924517393112 779.61354441940784 696.70408815145493
leaf_count=1003 722 679 1120 799 535 1133 1520 941 511 2240 1608 728 2709 1749
internal_value=0 0.374682 0.0592732 0.038665 0.0789658 0.0519539 -0.0493712 0.136466 -0.0851951 0.19058 0.455643 0.345734 -0.147062 0.0284495
internal_weight=0 2142.61 5472.35 5069.58 3825.02 3603.41 1638.7 1964.71 1244.56 1618.85 1620.97 739.121 1041.4 1292.23
internal_count=17997 4018 13979 13257 9238 8703 4402 4301 4019 3360 3015 1407 3508 3269
cat_boundaries=0 1 2 3 4
cat_threshold=2 2 2 2
shrinkage=0.06


Tree=43
num_leaves=15
num_cat=2
split_feature=8 20 0 20 10 17 13 0 18 15 13 0 4 21
split_gain=89.1347 36.1205 35.8717 27.4903 26.5517 25.7061 24.2208 16.6247 16.2891 13.23 13.1529 11.426 8.98857 8.91877
threshold=0 1.0000000180025095e-35 295000.00000000006 5703.5000000000009 1 3109.5000000000005 230.50000000000003 305000.00000000006 327.00000000000006 1.0000000180025095e-35 115240.50000000001 135000.00000000003 34.500000000000007 9989.5000000000018
decision_type=1 2 2 2 1 2 2 2 2 2 2 2 2 2
left_child=12 7 4 5 -3 -4 -6 9 -8 11 -10 -2 -1 -5
right_child=1 2 3 13 6 -7 8 -9 10 -11 -12 -13 -14 -15
leaf_value=0.020566870296887346 0.015459481929454143 0.023135793568494385 -0.005977661296687373 0.012649888751541436 -0.014938510495456931 -0.038433131389688562 0.020105372142257737 0.028724383634432551 0.0039888324985346843 0.022082163278588824 0.015001131977843207 0.0022568096967386861 0.031466866500352922 -0.0068839756040168093
leaf_weight=562.68175654858351 458.09312249720097 333.57779838144779 215.7279809564352 200.15198923647404 198.12624335289001 148.21339903771877 295.58656726777554 271.53280456364155 2988.9951837807894 366.96977885067463 449.1216276884079 486.68814758956432 527.8626736626029 145.18066471815109
leaf_count=1115 885 634 632 601 501 629 569 501 7558 710 1132 1046 975 509
internal_value=0 0.121965 0.0800966 -0.128144 0.114724 -0.319917 0.0917431 0.253517 0.109823 0.206896 0.0904562 0.144306 0.430714 0.0739615
internal_weight=0 6557.97 4974.68 709.274 4265.41 363.941 3931.83 1583.28 3733.7 1311.75 3438.12 944.781 1090.54 345.333
internal_count=17997 15907 12765 2371 10394 1261 9760 3142 9259 2641 8690 1931 2090 1110
cat_boundaries=0 1 2
cat_threshold=2 2
shrinkage=0.06


Tree=44
num_leaves=15
num_cat=2
split_feature=5 11 20 17 19 12 22 17 20 19 19 13 4 3
split_gain=130.066 56.0936 41.6233 24.4331 15.1716 17.9842 37.8909 29.2636 18.8311 16.3975 41.073 33.2035 14.56 14.3512
threshold=0 529.00000000000011 4.5000000000000009 1021.5000000000001 579.50000000000011 129638.00000000001 5500.5000000000009 3600.5000000000005 11399.500000000002 3352.0000000000005 2500.5000000000005 8984.0000000000018 37.500000000000007 1
decision_type=1 2 2 2 2 2 2 2 2 2 2 2 2 1
left_child=1 -1 12 -3 -4 7 -7 9 13 10 -6 -11 -2 -9
right_child=2 3 4 -5 5 6 -8 8 -10 11 -12 -13 -14 -15
leaf_value=0.0041095365102536982 0.0077101291784828158 0.018128470706837659 0.0073059701594502865 0.033206303963441326 0.0015332440156549281 0.023560833819614456 -0.0078857078907447302 -0.0076201888585830857 0.0084061050058868141 -0.0075000734531874141 -0.028175576701764751 0.027665458900167878 0.021231009382896016 -0.024334027022608371
leaf_weight=546.94613821804523 744.71620324254036 702.45283395051956 881.8299141228199 861.29540462046862 1351.9405753314495 285.3244690746069 267.04179711639881 355.48769883811474 130.45072278380394 177.71526248753071 191.22426651418209 211.9341993778944 466.21032644808292 385.50295618921518
leaf_count=1077 1600 1381 1883 1602 3370 713 764 1155 502 502 615 549 893 1391
internal_value=0 0.344141 0.0517536 0.440553 0.00503931 -0.0256264 0.1393 -0.0581126 -0.210248 0.0104802 -0.035803 0.19378 0.215262 -0.271927
internal_weight=0 2110.69 5449.38 1563.75 4238.45 3356.62 552.366 2804.26 871.441 1932.81 1543.16 389.649 1210.93 740.991
internal_count=17997 4060 13937 2983 11444 9561 1477 8084 3048 5036 3985 1051 2493 2546
cat_boundaries=0 1 2
cat_threshold=2 2
shrinkage=0.06


Tree=45
num_leaves=15
num_cat=5
split_feature=5 9 13 15 10 19 14 1 17 17 13 14 2 17
split_gain=115.398 30.8229 32.2509 47.053 30.732 20.9216 23.0443 20.5065 17.9586 15.0422 16.976 32.5459 15.9978 14.4632
threshold=0 1 10297.000000000002 229.50000000000003 2 11.500000000000002 386.50000000000006 3 442.00000000000006 1160.5000000000002 26557.000000000004 15013.500000000002 4 12010.000000000002
decision_type=1 1 2 2 1 2 2 1 2 2 2 2 1 2
left_child=1 -1 3 -3 -2 6 8 13 -6 -9 11 -11 -12 -7
right_child=4 2 -4 -5 5 7 -8 9 -10 10 12 -13 -14 -15
leaf_value=0.031331758309137002 0.019087050438443089 0.018359460179379377 0.023144328726480597 -0.013864387469320677 0.011657676358578213 -0.005219780587371976 0.023772227773057784 0.017227480490958541 -0.0076128495150576785 0.0048875815937159273 0.015752512267522376 -0.025349936728452434 -0.0011435770480494175 0.011136302940906789
leaf_weight=583.20404045283794 396.70656830072403 405.99166204035282 809.76351343840361 272.70585312694311 422.76322969794273 2168.8846372887492 289.47114013135433 294.50486534833908 295.98213450610638 365.17466543614864 430.96394148468971 197.42686623334885 379.28657728433609 213.81725938618183
leaf_count=1188 746 713 1515 623 826 6094 533 607 730 942 1055 601 1128 696
internal_value=0 0.32733 0.250979 0.0901945 0.0500985 0.0290785 0.157978 -0.00300945 0.0620333 0.0820526 0.0380605 -0.0953883 0.130721 -0.0625338
internal_weight=0 2071.67 1488.46 678.698 5454.98 5058.28 1008.22 4050.06 718.745 1667.36 1372.85 562.602 810.251 2382.7
internal_count=17997 4039 2851 1336 13958 13212 2089 11123 1556 4333 3726 1543 2183 6790
cat_boundaries=0 1 2 3 4 5
cat_threshold=2 2 2 4 4
shrinkage=0.06


Tree=46
num_leaves=15
num_cat=4
split_feature=7 10 18 21 1 4 19 2 21 4 17 16 0 11
split_gain=102.035 34.9075 21.7039 28.9513 24.5664 36.8606 19.2258 13.484 22.3935 27.515 18.5998 56.5882 12.368 11.8085
threshold=0 1 12203.000000000002 7795.0000000000009 2 34.500000000000007 1014.5000000000001 3 1150.5000000000002 36.500000000000007 326.50000000000006 4806.0000000000009 245000.00000000003 346.50000000000006
decision_type=1 1 2 2 1 2 2 1 2 2 2 2 2 2
left_child=-1 -2 4 -4 7 -6 -7 8 9 -3 13 -12 -10 -9
right_child=1 2 3 -5 5 6 -8 10 12 -11 11 -13 -14 -15
leaf_value=0.022602855144817829 0.020584046724345294 0.020091867474252813 -0.025690876418838247 0.0067388069225370155 -0.00021903378573401338 0.0061179124455008477 0.021608202695219417 0.014378685708469214 0.0010778237086112386 -0.0040177339953744607 -0.026267655491330817 0.0017484320170610675 -0.017317953487616691 -0.0040315346939350186
leaf_weight=1241.7916411980987 414.77586567401886 490.59045070409775 217.67468999326229 181.93258638679981 969.61385807394981 476.72365669906139 730.36172986030579 278.50578783452511 652.61753724515438 261.10498367249966 391.37158547341824 770.55056086182594 164.79715117812157 228.18537870049477
leaf_count=2493 800 1004 778 613 2408 986 1688 517 1685 598 1127 2220 562 518
internal_value=0 0.0627896 0.0427944 -0.182106 0.059393 0.141544 0.258175 0.00416309 0.0707119 0.195288 -0.0584173 -0.128138 -0.0438485 0.101463
internal_weight=0 6228.81 5814.03 399.607 5414.42 2176.7 1207.09 3237.72 1569.11 751.695 1668.61 1161.92 817.415 506.691
internal_count=17997 15504 14704 1391 13313 5082 2674 8231 3849 1602 4382 3347 2247 1035
cat_boundaries=0 1 2 3 4
cat_threshold=2 2 4 4
shrinkage=0.06


Tree=47
num_leaves=15
num_cat=5
split_feature=5 7 11 3 21 21 0 6 19 11 7 13 13 13
split_gain=103.644 31.2112 25.3358 23.6503 26.2104 33.0019 27.3821 21.2587 19.3577 16.1001 15.392 14.6926 16.7003 21.3709
threshold=0 1 990.50000000000011 2 1981.0000000000002 7000.5000000000009 195000.00000000003 3 4664.5000000000009 78913.500000000015 4 291.50000000000006 10608.500000000002 29168.500000000004
decision_type=1 1 2 1 2 2 2 1 2 2 1 2 2 2
left_child=2 -2 -1 4 -3 6 9 10 11 -6 -4 -5 -13 -14
right_child=1 3 7 8 5 -7 -8 -9 -10 -11 -12 12 13 -15
leaf_value=0.007914973286853878 0.018088139907808883 0.0025031660691261261 0.023370394890702969 -0.0039012998623087517 -0.017066038351780999 0.005652821268553306 -0.033983731848921235 0.035250495822400148 -0.0043184602768078758 0.005393021235534941 0.0082843544076545341 0.018294435043143386 -0.0067242700845083448 0.012060981575071404
leaf_weight=587.36868442595005 435.342320561409 1459.0504058599472 761.34327224642038 294.96579644083977 323.83411191403866 338.51349422335625 233.05562857538462 363.28715457767248 556.06942451000214 178.10488547384739 357.93467219173908 628.96527060866356 327.98466384410858 650.25250971317291
leaf_count=1124 799 3481 1653 663 951 1035 929 612 1766 506 722 1310 828 1618
internal_value=0 0.0446784 0.307685 0.0222788 -0.0455425 -0.164144 -0.283135 0.377321 0.0921505 -0.151613 0.3091 0.14013 0.177781 0.096044
internal_weight=0 5426.14 2069.93 4990.8 2532.56 1073.51 734.995 1482.57 2458.24 501.939 1119.28 1902.17 1607.2 978.237
internal_count=17997 13886 4111 13087 6902 3421 2386 2987 6185 1457 2375 4419 3756 2446
cat_boundaries=0 1 2 3 4 5
cat_threshold=2 2 4 2 2
shrinkage=0.06


Tree=48
num_leaves=14
num_cat=3
split_feature=7 18 10 19 11 5 15 0 11 11 19 18 11
split_gain=84.0421 44.8635 20.6644 18.9044 40.043 27.5898 18.349 14.627 14.2562 11.619 14.8379 7.74304 10.4489
threshold=0 14094.500000000002 1 1.0000000180025095e-35 325.50000000000006 2 22120.500000000004 295000.00000000006 839.00000000000011 15496.000000000002 1218.5000000000002 302.00000000000006 389.50000000000006
decision_type=1 2 1 2 2 1 2 2 2 2 2 2 2
left_child=9 2 -2 7 -5 -6 -3 11 -7 -1 -11 12 -4
right_child=1 6 3 4 5 8 -8 -9 -10 10 -12 -13 -14
leaf_value=0.02857485870290917 0.018540365660450243 -0.0021624894931007136 0.0092745861818591818 -0.020189965005051054 0.016691888075903778 0.015370395413489855 -0.030008687619171113 0.022771250582387294 0.0007049853382370125 0.0060459954268547028 0.02335692762911579 0.013352833161491297 -0.0072719898296939971
leaf_weight=463.42881687730551 382.39174135029316 157.09473210573196 340.9327540397644 269.29946652054787 513.7950567305088 257.77485808730125 186.11517150700092 275.94429722428322 3212.3707867190242 295.94890037924051 448.21531090885401 418.10788278281689 230.12836746871471
leaf_count=843 744 532 642 666 975 515 714 506 8853 682 949 835 541
internal_value=0 0.0637571 0.0842 0.0686222 0.0367008 0.0619277 -0.287714 0.17594 0.0299064 0.351949 0.274542 0.119148 0.0434431
internal_weight=0 6243.96 5900.75 5518.35 4253.24 3983.94 343.21 1265.11 3470.15 1207.59 744.164 989.169 571.061
internal_count=17997 15523 14277 13533 11009 10343 1246 2524 9368 2474 1631 2018 1183
cat_boundaries=0 1 2 3
cat_threshold=2 2 2
shrinkage=0.06


Tree=49
num_leaves=15
num_cat=1
split_feature=5 11 18 19 4 13 11 13 18 21 21 11 4 11
split_gain=80.1463 34.8503 19.6797 18.8998 20.6424 20.633 23.105 24.7185 20.4466 24.1974 18.7459 16.1004 11.6911 10.1433
threshold=0 143.00000000000003 12611.000000000002 10093.000000000002 31.500000000000004 128385.50000000001 489.50000000000006 291.50000000000006 5764.0000000000009 150.50000000000003 7795.0000000000009 16621.500000000004 34.500000000000007 7016.0000000000009
decision_type=1 2 2 2 2 2 2 2 2 2 2 2 2 2
left_child=1 -1 3 4 8 6 -6 -8 9 13 -4 -11 -3 -2
right_child=2 12 10 -5 5 -7 7 -9 -10 11 -12 -13 -14 -15
leaf_value=0.0034152655763557741 -0.0037238913379190456 0.016558894942486229 -0.023842329635328282 0.018075821240935163 0.01762239230079711 0.021607568858600414 -0.016663128466733814 0.0042723830959914087 -0.019922820651635021 0.012018699956322569 0.0040303020461801573 -0.0014656273433852384 0.027176824812418194 -0.022572735659048285
leaf_weight=503.8891413807869 225.60590328276157 777.03512214124203 185.23322895169258 320.02642922103405 409.55359202623367 283.41207039356232 226.72900667786598 1942.2624072879553 200.77037248015404 559.67526678740978 163.57708789408207 740.58840019255877 718.51800805330276 188.79001389443874
leaf_count=995 501 1638 694 869 762 680 578 4857 640 1227 575 2053 1425 503
internal_value=0 0.284369 0.0502747 0.0659994 0.0502395 0.104015 0.0758657 0.0347325 -0.0301099 0.00524403 -0.179521 0.0723077 0.361002 -0.205184
internal_weight=0 1999.44 5446.22 5097.41 4777.39 2861.96 2578.55 2168.99 1915.43 1714.66 348.81 1300.26 1495.55 414.396
internal_count=17997 4058 13939 12670 11801 6877 6197 5435 4924 4284 1269 3280 3063 1004
cat_boundaries=0 1
cat_threshold=2
shrinkage=0.06


Tree=50
num_leaves=15
num_cat=2
split_feature=5 11 22 22 11 13 3 13 18 18 16 21 21 13
split_gain=68.9303 29.2083 22.8016 20.8984 14.2841 49.7369 19.2475 17.1694 14.1976 12.5475 11.9189 11.8411 17.957 14.519
threshold=0 529.00000000000011 962.50000000000011 1000.5000000000001 20543.000000000004 26557.000000000004 1 2991.5000000000005 265.50000000000006 15724.000000000002 19300.000000000004 10037.500000000002 5702.5000000000009 1399.5000000000002
decision_type=1 2 2 2 2 2 1 2 2 2 2 2 2 2
left_child=1 -1 4 -4 6 -6 7 -2 -3 11 -10 12 13 -5
right_child=2 8 3 9 5 -7 -8 -9 10 -11 -12 -13 -14 -15
leaf_value=0.0037008203715719733 0.0096245719535423147 0.029651694785589953 -0.017828271950990921 -0.011570028919428231 -0.024816424007337981 0.011703434913307696 0.0037564021780183768 0.027869661210629938 0.0069331516999543621 -0.01431909613729772 0.020736260925019397 0.013461623089024108 -0.012975549270919609 0.0039809198658644169
leaf_weight=547.72411860525608 477.0652632266283 396.28231580555439 241.89688907563686 243.66847136616707 205.63267401605844 386.75783671438694 871.67680190503597 304.00119867920876 332.2222488000989 191.79966699331999 699.14974618703127 270.98573297262192 321.55400897562504 1912.7697360515594
leaf_count=1080 957 817 649 631 604 890 1919 584 717 771 1464 760 999 5155
internal_value=0 0.257998 0.0398367 -0.0146004 0.117006 -0.0162244 0.16476 0.278763 0.333315 0.00864002 0.271501 0.0258939 0.00419017 0.0370621
internal_weight=0 1975.38 5427.81 3182.67 2245.13 592.391 1652.74 781.066 1427.65 2940.78 1031.37 2748.98 2477.99 2156.44
internal_count=17997 4078 13919 8965 4954 1494 3460 1541 2998 8316 2181 7545 6785 5786
cat_boundaries=0 1 2
cat_threshold=2 2
shrinkage=0.06


Tree=51
num_leaves=15
num_cat=4
split_feature=9 5 11 6 18 1 11 16 15 15 17 17 4 4
split_gain=65.5841 25.2695 20.0152 29.6635 20.409 18.7724 21.0084 20.0089 27.3765 23.0416 17.9166 29.0695 15.2938 21.9887
threshold=0 1 529.00000000000011 2 1451.5000000000002 3 2638.5000000000005 77093.000000000015 46996.500000000007 18753.500000000004 1300.5000000000002 21.000000000000004 33.500000000000007 41.500000000000007
decision_type=1 1 2 1 2 1 2 2 2 2 2 2 2 2
left_child=-1 2 -2 4 -4 6 10 8 9 -8 11 -3 -7 -14
right_child=1 5 3 -5 -6 12 7 -9 -10 -11 -12 -13 13 -15
leaf_value=0.021636744341189035 0.001471889798907091 0.012986000946587346 0.019613801164730042 0.031398778413236357 -0.0025465909257767921 0.00015658069574382 -0.0099145754111622866 0.0067474647462081845 -0.025009869427121929 0.0053368651795081615 0.019445544505539814 -0.014769342667314526 0.018587142702335552 0.0023741438598494772
leaf_weight=837.04469360411167 518.5311828404665 308.40265335142612 297.54079306870699 307.5226978585124 300.93063747137785 861.41059167683125 917.04712591320276 476.75570175051689 261.8253720626235 583.52135396003723 277.87066991627216 242.79185929894447 613.28297440707684 591.68333232402802
leaf_count=1778 1037 597 616 536 679 2226 2604 1374 912 1546 630 588 1407 1467
internal_value=0 0.0633737 0.181214 0.270888 0.141181 0.0306805 -0.018941 -0.0692918 -0.118458 -0.0663966 0.117047 0.0126707 0.10436 0.177099
internal_weight=0 6559.12 1424.53 905.994 598.471 5134.59 3068.21 2239.15 1762.39 1500.57 829.065 551.195 2066.38 1204.97
internal_count=17997 16219 2868 1831 1295 13351 8251 6436 5062 4150 1815 1185 5100 2874
cat_boundaries=0 1 2 3 4
cat_threshold=2 2 2 4
shrinkage=0.06


Tree=52
num_leaves=15
num_cat=4
split_feature=8 17 12 5 3 0 15 12 19 20 0 3 17 0
split_gain=62.6624 22.8177 29.9261 22.6309 23.981 26.3858 25.3541 20.913 33.2555 15.6913 20.3816 10.2046 10.0851 8.41664
threshold=0 28889.000000000004 222094.00000000003 1 2 75000.000000000015 6406.5000000000009 19140.000000000004 827.50000000000011 11.500000000000002 225000.00000000003 3 1526.5000000000002 155000.00000000003
decision_type=1 2 2 1 1 2 2 2 2 2 2 1 2 2
left_child=11 2 3 7 5 -5 -7 8 -2 13 -11 -1 -9 -6
right_child=1 -3 -4 4 9 6 -8 12 -10 10 -12 -13 -14 -15
leaf_value=0.013197586344703173 0.012093759095300723 -0.020911599132996228 0.023970777794538038 0.015399076365526341 -0.0010748260167380184 0.0084890108192578438 -0.0067000745388138229 0.010190251756765266 -0.014704602139373094 -0.0028664104805119577 -0.018817194348045657 0.025374957059190198 0.026954054774317667 0.013881395651519206
leaf_weight=493.63200519979 521.8295618891716 139.47592286020517 249.86057347804308 660.28191144764423 299.42354622483253 815.70824877917767 768.22835646569729 242.30182867497206 244.96157919615507 1545.2244133651257 354.55924444645643 497.32628880441189 276.75466790050268 247.35743236541748
leaf_count=1082 978 510 552 1321 664 1859 2399 500 580 4111 1337 1023 538 543
internal_value=0 0.0514878 0.0604482 0.0462732 0.0140555 0.0887102 0.018702 0.163804 0.0588778 -0.0544247 -0.0973888 0.321816 0.318808 0.0948533
internal_weight=0 6365.97 6226.49 5976.63 4690.78 2244.22 1583.94 1285.85 766.791 2446.56 1899.78 990.958 519.056 546.781
internal_count=17997 15892 15382 14830 12234 5579 4258 2596 1558 6655 5448 2105 1038 1207
cat_boundaries=0 1 2 3 4
cat_threshold=2 2 2 4
shrinkage=0.06


Tree=53
num_leaves=15
num_cat=2
split_feature=10 20 0 13 12 13 11 13 22 19 5 0 17 4
split_gain=57.3212 28.1332 33.0809 43.7804 27.9776 32.2381 27.6444 28.6604 25.047 16.7168 15.6212 19.3008 17.5992 16.116
threshold=0 1.0000000180025095e-35 145000.00000000003 214607.00000000003 8279.5000000000018 1050.5000000000002 78913.500000000015 46977.000000000007 2900.5000000000005 6117.0000000000009 1 125000.00000000001 3200.5000000000005 33.500000000000007
decision_type=1 2 2 2 2 2 2 2 2 2 1 2 2 2
left_child=-1 -2 10 4 5 -4 7 -6 -7 -8 -3 12 -12 -14
right_child=1 2 3 -5 6 8 9 -9 -10 -11 11 -13 13 -15
leaf_value=0.019809762454387324 0.010141015933854379 0.01415221909084812 -0.013865322944305598 0.019487249113274954 -0.017018875893405439 -0.0017816099503392879 0.0014100865485876767 -0.052604048836168545 0.024153343640729717 -0.021098095794464828 0.0041118711473943333 0.019373173280586704 0.00062819332403054446 -0.023497183333268848
leaf_weight=860.91340224444866 1633.3749501928687 586.57453503459692 355.7742026001215 243.77688419818878 353.76529452949762 312.76673309504986 393.33805043250322 105.86087311804295 234.61674550175667 170.18426302820444 1452.5003283023834 232.3668210208416 225.32081344723701 178.76576685905457
leaf_count=1861 3364 1212 893 569 1421 812 1181 512 628 570 3300 557 605 512
internal_value=0 0.0555192 0.017261 -0.0744837 -0.125012 0.00325942 -0.23824 -0.420247 0.155575 -0.0897901 0.0916739 0.0511838 0.017178 -0.167412
internal_weight=0 6478.99 4845.61 2170.08 1926.31 903.158 1023.15 459.626 547.383 563.522 2675.53 2088.95 1856.59 404.087
internal_count=17997 16136 12772 6586 6017 2333 3684 1933 1440 1751 6186 4974 4417 1117
cat_boundaries=0 1 2
cat_threshold=2 2
shrinkage=0.06


Tree=54
num_leaves=15
num_cat=2
split_feature=8 18 0 11 17 12 20 15 16 18 3 17 20 20
split_gain=47.1869 39.3376 19.5292 22.2755 34.5376 24.6714 21.4451 20.5819 15.2201 13.6738 12.5569 11.0979 12.519 5.87697
threshold=0 9998.0000000000018 45000.000000000007 124778.50000000001 4571.0000000000009 80332.000000000015 2541.0000000000005 53092.500000000007 33352.000000000007 3101.0000000000005 1 3660.5000000000005 9002.0000000000018 326.50000000000006
decision_type=1 2 2 2 2 2 2 2 2 2 1 2 2 2
left_child=9 2 13 4 5 7 -6 -4 -8 -1 -5 -3 -13 -2
right_child=1 11 3 10 6 -7 8 -9 -10 -11 -12 12 -14 -15
leaf_value=0.021779820228896723 0.018460931957028918 -0.00068626164254723793 0.0028872949990132934 0.0036538667394456401 -0.0011534643455166106 0.021209408506500792 -0.037462943730223366 -0.016536649313552369 -0.011117286513995361 0.0067253677705385482 0.02151173444063605 -0.0083359083814405523 -0.029892808362008392 0.0083686423097495081
leaf_weight=627.49085380136967 310.84726972877979 188.84896817058325 3148.8056219294667 260.50157921016216 320.5471967831254 250.10999372601509 145.22108366340399 209.45048885047436 172.96056055277586 332.18383940309286 310.95912554860115 207.54607819765806 182.05743467062712 626.10285673290491
leaf_count=1341 574 539 7298 709 879 614 581 656 561 756 718 736 725 1310
internal_value=0 0.0381988 0.0631826 0.0374964 0.0125561 0.0504966 -0.201781 0.0279308 -0.385695 0.276147 0.222853 -0.210386 -0.30682 0.195282
internal_weight=0 6333.96 5755.51 4818.56 4247.09 3608.37 638.729 3358.26 318.182 959.675 571.461 578.452 389.604 936.95
internal_count=17997 15900 13900 12016 10589 8568 2021 7954 1142 2097 1427 2000 1461 1884
cat_boundaries=0 1 2
cat_threshold=2 4
shrinkage=0.06


Tree=55
num_leaves=15
num_cat=4
split_feature=10 18 5 16 22 11 22 13 20 20 2 1 19 4
split_gain=56.4847 23.9171 21.0295 20.1006 33.9009 15.8415 21.5563 15.9077 31.1824 15.6423 15.4069 14.4292 12.9396 9.55437
threshold=0 16683.500000000004 1 29252.500000000004 999.50000000000011 781.00000000000011 663.50000000000011 1216.0000000000002 650.50000000000011 11399.500000000002 2 3 7702.0000000000009 34.500000000000007
decision_type=1 2 1 2 2 2 2 2 2 2 1 1 2 2
left_child=13 2 3 4 11 6 -4 8 -7 10 -9 -2 -3 -1
right_child=1 12 5 -5 -6 7 -8 9 -10 -11 -12 -13 -14 -15
leaf_value=0.012733144486924581 0.004527277452027763 -0.004137525907147349 0.015674563452003538 0.020600260300468323 -0.01256437367434469 -0.00054598830847727721 -0.0071404499305927861 -0.0066465024246784256 -0.030949824095494932 0.016737948965974525 0.0025569953190756967 0.022033478342376851 -0.030929384067369611 0.025527376209713869
leaf_weight=461.01189403235912 403.18560203164816 152.26445058733225 517.3821277320385 404.35673040896654 288.91930086910725 400.43730889260769 209.43501706421375 909.73089479655027 174.29587557911873 213.66704104840755 2336.7354528009892 292.43391701579094 113.09895268827677 386.10843776166439
leaf_count=1036 828 505 963 821 693 908 503 2784 543 609 5937 532 511 824
internal_value=0 0.0346699 0.0473519 0.15562 0.0785237 0.0157719 0.151672 -0.00870834 -0.162773 0.016882 -0.000367102 0.198113 -0.259272 0.30941
internal_weight=0 6415.94 6150.58 1388.9 984.539 4761.68 726.817 4034.87 574.733 3460.13 3246.47 695.62 265.363 847.12
internal_count=17997 16137 15121 2874 2053 12247 1466 10781 1451 9330 8721 1360 1016 1860
cat_boundaries=0 1 2 3 4
cat_threshold=2 2 2 4
shrinkage=0.06


Tree=56
num_leaves=15
num_cat=1
split_feature=9 0 4 22 15 11 0 20 20 17 15 14 11 20
split_gain=44.3104 20.5689 13.3165 13.0433 18.6239 17.1863 45.7781 32.0817 26.2597 16.6128 14.7533 13.099 12.9578 7.1331
threshold=0 45000.000000000007 24.500000000000004 9907.5000000000018 94272.000000000015 8393.0000000000018 215000.00000000003 5703.5000000000009 3670.5000000000005 7401.5000000000009 4782.5000000000009 34629.500000000007 24073.500000000004 596.50000000000011
decision_type=1 2 2 2 2 2 2 2 2 2 2 2 2 2
left_child=-1 2 -2 4 5 7 8 10 -7 -6 -3 -8 -5 -4
right_child=1 3 13 12 9 6 11 -9 -10 -11 -12 -13 -14 -15
leaf_value=0.017974314872902571 -0.0011207282295581432 0.0050460560981414847 0.021707106257130144 -0.019611215491001709 0.0030227529427832764 -0.0021122534165639115 -0.014275073685714916 -0.020293136612977956 0.017384445676942629 0.022438245534049363 0.020607645486303016 -0.039235282637842372 0.00013838015035284149 0.0098753091973943236
leaf_weight=793.06615476310253 251.21600910276175 1702.7116044834256 315.61660468578339 199.09847993403673 343.07493201643229 1607.2150659933686 206.20881859213114 167.72743605077267 294.22471795231104 295.13885809481144 251.74983441829681 119.58690728247166 299.50811069458723 437.99076717346907
leaf_count=1776 558 3627 573 694 958 4142 766 513 740 700 573 542 923 912
internal_value=0 0.0491748 0.18071 0.0250838 0.0405004 0.0170929 -0.044267 0.08149 0.0150771 0.200023 0.117508 -0.390617 -0.12913 0.247176
internal_weight=0 6491.07 1004.82 5486.24 4987.64 4349.42 2227.24 2122.19 1901.44 638.214 1954.46 325.796 498.607 753.607
internal_count=17997 16221 2043 14178 12561 10903 6190 4713 4882 1658 4200 1308 1617 1485
cat_boundaries=0 1
cat_threshold=2
shrinkage=0.06


Tree=57
num_leaves=15
num_cat=1
split_feature=9 0 4 17 14 21 17 14 18 12 19 18 17 21
split_gain=47.9268 21.7505 14.1345 10.4054 34.8727 28.321 25.0017 19.3583 20.943 17.1192 17.3462 28.6571 17.6572 16.1626
threshold=0 45000.000000000007 24.500000000000004 4571.0000000000009 51955.500000000007 3999.0000000000005 7401.5000000000009 19505.500000000004 3400.5000000000005 79092.500000000015 801.00000000000011 1192.5000000000002 1097.5000000000002 4202.0000000000009
decision_type=1 2 2 2 2 2 2 2 2 2 2 2 2 2
left_child=-1 2 -2 9 7 -6 -7 8 -5 10 -3 12 -12 -13
right_child=1 3 -4 4 5 6 -8 -9 -10 -11 11 13 -14 -15
leaf_value=0.018235191255578292 -0.0018136551761629056 0.0059760014694214712 0.014807067798333538 -0.02050138873018615 0.020838958743488976 -0.019707929793106541 0.0060487509810979913 -0.030380621593717121 0.0052790463300130992 0.015414333105606415 -0.005669509782409779 -0.0013162585640530149 -0.031189262570071333 0.015551737110409389
leaf_weight=790.65537206083536 243.87853714078665 1670.8165656998754 752.6934721544385 220.0007039681077 268.88320128619671 203.4293529316783 407.33894404768944 181.70949928462505 234.19808446615934 348.79983462393284 225.19545997679234 1300.1220317855477 172.27181413024664 242.66515298187733
leaf_count=1784 547 3470 1483 652 678 665 1132 709 827 866 544 3475 501 664
internal_value=0 0.0431101 0.178995 0.018378 -0.052087 0.0768859 -0.0421676 -0.230495 -0.120137 0.0453471 0.0249122 -0.0394039 -0.27884 0.0222818
internal_weight=0 6472 996.572 5475.43 1515.56 879.651 610.768 635.908 454.199 3959.87 3611.07 1940.25 397.467 1542.79
internal_count=17997 16213 2030 14183 4663 2475 1797 2188 1479 9520 8654 5184 1045 4139
cat_boundaries=0 1
cat_threshold=2
shrinkage=0.06


Tree=58
num_leaves=15
num_cat=1
split_feature=7 22 22 18 14 22 14 11 16 21 15 16 4 18
split_gain=34.0896 12.438 19.0199 13.8266 16.8588 25.3009 15.4286 12.1229 13.1746 7.75377 21.0386 26.2787 14.9354 11.6452
threshold=0 900.50000000000011 1000.5000000000001 1033.5000000000002 4275.5000000000009 1500.5000000000002 13433.500000000002 15168.000000000002 41215.500000000007 1454.5000000000002 1652.5000000000002 5372.5000000000009 32.500000000000007 1617.5000000000002
decision_type=1 2 2 2 2 2 2 2 2 2 2 2 2 2
left_child=7 9 -3 -4 -5 -6 -7 -1 -9 10 12 -12 -2 -13
right_child=1 2 3 4 5 6 -8 8 -10 -11 11 13 -14 -15
leaf_value=0.022030164526010011 0.0004713724938855553 -0.01430519887848841 -0.0097136702655977389 0.014533500118462547 0.015647279751083588 -0.015190803988393725 0.00049261929004574753 0.00085415746460154737 0.017360102636321248 0.012043098126619141 -0.020546488431946064 0.011204636559148334 0.013691303650565449 -0.006925294543843258
leaf_weight=417.60775724798441 498.53182902187109 297.16294383257627 349.70862528681755 389.25496342778206 367.70734789967537 256.67135705053806 1878.2108297348022 348.45425718277693 347.88315445184708 545.84149191528559 236.22917750477791 302.64641891419888 803.51985614746809 220.44278769940138
leaf_count=833 1086 788 894 924 829 850 5474 873 826 1245 648 629 1554 544
internal_value=0 0.0423308 0.00371663 0.025914 0.0486256 0.0185129 -0.023216 0.23246 0.151673 0.094741 0.0666786 -0.065613 0.143827 0.0594039
internal_weight=0 6145.93 3538.72 3241.55 2891.84 2502.59 2134.88 1113.95 696.337 2607.21 2061.37 759.318 1302.05 523.089
